32 -0.14218896627426147 -0.1653875857591629 -0.3619033694267273 0.058601003140211105 0.17321325838565826 -0.28212669491767883 -0.07669303566217422 0.06819122284650803 -0.16409514844417572 -0.3891012966632843 -0.2115168273448944 0.08774976432323456 0.08035629987716675 -0.24073702096939087 0.3261987864971161 -0.15602055191993713 0.19090977311134338 0.03353164345026016 -0.22645841538906097 -0.29164645075798035 -0.23674264550209045 0.08749743551015854 -0.505470871925354 0.3018662631511688 -0.13009212911128998 -0.07363031059503555 -0.3293030261993408 -0.17988301813602448 0.2717011272907257 -0.9357597231864929 -0.41387203335762024 -0.0011953169014304876
32 0.2819061875343323 0.23338310420513153 -0.4449654519557953 0.12810687720775604 -0.03153340891003609 -0.31360816955566406 -0.22351917624473572 -0.006181544158607721 0.04051084816455841 -0.291220098733902 -0.2339049130678177 0.13135787844657898 0.21152032911777496 -0.18409958481788635 0.054888684302568436 -0.19011911749839783 0.09409000724554062 0.29760193824768066 -0.03052663244307041 -0.040179766714572906 -0.4093301296234131 0.4203806519508362 -0.2638569176197052 -0.230305477976799 0.0950712189078331 0.04144509881734848 0.09595455229282379 -0.23710033297538757 0.05893886461853981 -0.6788350939750671 -0.18281644582748413 0.06273462623357773
32 0.2960907816886902 0.2518444061279297 -0.5993919968605042 0.359639436006546 -0.06249024718999863 -0.3415094316005707 -0.1382140964269638 0.08777731657028198 0.2671872675418854 -0.47628337144851685 -0.13703559339046478 0.2898637056350708 0.22229433059692383 -0.009312814101576805 0.30077439546585083 -0.20761291682720184 0.15946605801582336 0.45906713604927063 0.0334768071770668 0.03814021497964859 -0.4377572536468506 0.45437341928482056 -0.22960306704044342 -0.3094295561313629 0.10962971299886703 -0.059248968958854675 0.11362466961145401 -0.3649861514568329 -0.16462236642837524 -0.8607988357543945 -0.5962250828742981 0.1430547684431076
32 -0.30786997079849243 0.2954024076461792 -0.09114813059568405 0.3995835483074188 0.04208996519446373 -0.24895283579826355 0.023069556802511215 -0.17734235525131226 -0.12638747692108154 -0.3504765033721924 0.07119065523147583 0.15159252285957336 -0.07588724046945572 0.22210103273391724 0.20972789824008942 -0.17086662352085114 0.24021892249584198 0.25739261507987976 0.09261951595544815 0.10924538969993591 -0.6240335702896118 -0.25443610548973083 -0.47502848505973816 0.17226172983646393 -0.05518504977226257 0.033736325800418854 -0.14836348593235016 -0.07098004221916199 0.3347838819026947 -0.20404206216335297 -0.26405230164527893 -0.10353927314281464
32 0.27447977662086487 -0.11367687582969666 -0.07721425592899323 -0.008044078014791012 -0.12569303810596466 -0.2525082528591156 0.06626114249229431 -0.011889873072504997 -0.1289684921503067 -0.6583274006843567 -0.4658230245113373 0.592829704284668 0.023659827187657356 -0.015008089132606983 0.1892165243625641 -0.21266549825668335 0.13805289566516876 -0.0382486991584301 -0.09410341829061508 -0.13126055896282196 -0.2706852853298187 -0.1379014402627945 0.27526623010635376 -0.00929194688796997 0.014557575806975365 0.3103006184101105 0.3334957957267761 -0.2684984505176544 -0.32980185747146606 0.245528444647789 -0.43466421961784363 -0.024650098755955696
32 -0.23319831490516663 0.07040182501077652 0.1644420027732849 0.06981117278337479 -0.12934111058712006 -0.318538635969162 -0.1152745708823204 -0.15596213936805725 0.005145129282027483 -0.268344521522522 -0.19697070121765137 0.150888592004776 -0.18095065653324127 -0.015056218951940536 0.39393705129623413 0.01657302863895893 0.11267257481813431 -0.2789522707462311 -0.10651944577693939 -0.057102516293525696 -0.6282060146331787 -0.2529433071613312 0.09722889214754105 -0.049581125378608704 0.031348392367362976 0.008890185505151749 0.24850790202617645 -0.05037112906575203 -0.176609069108963 0.07521587610244751 -0.20881955325603485 0.09911461174488068
32 0.25895705819129944 -0.1916748285293579 -0.05971447750926018 -0.05921424552798271 -0.2570981979370117 -0.36309975385665894 -0.21718847751617432 -0.11055454611778259 0.10226093977689743 0.04233037680387497 -0.37623438239097595 0.0644727349281311 -0.419275164604187 -0.031760990619659424 0.2609699070453644 -0.025530995801091194 0.16242003440856934 -0.08507989346981049 -0.02176215685904026 -0.14685280621051788 0.012910855002701283 -0.15071725845336914 0.1488652378320694 -0.21271146833896637 0.046394262462854385 0.29031455516815186 0.2664662301540375 -0.09349828213453293 -0.2997608482837677 0.4659198224544525 -0.09163665771484375 0.01651618257164955
32 0.16846410930156708 -0.07872319221496582 0.1744985282421112 0.11944060772657394 -0.23319272696971893 -0.33804869651794434 0.02696402557194233 -0.044789545238018036 0.41439253091812134 0.1850561499595642 -0.40645721554756165 -0.059168070554733276 -0.39419570565223694 -0.17574164271354675 0.20160821080207825 -0.01626044325530529 0.15649743378162384 -0.18169763684272766 -0.041753195226192474 -0.11900290846824646 0.05373824015259743 -0.24631042778491974 -0.3396924138069153 -0.08259698748588562 0.09942711144685745 0.11998505145311356 0.1324543058872223 -0.315042644739151 -0.34516409039497375 0.20203439891338348 -0.13494230806827545 -0.226517453789711
32 -0.2998177111148834 -0.3548358380794525 -0.1568276286125183 -0.0925140231847763 0.10018344968557358 -0.23244890570640564 0.3069460093975067 0.10100235044956207 0.05288305506110191 -0.09639054536819458 0.2206113189458847 0.006840413436293602 0.05948701873421669 -0.09414147585630417 -0.08209758251905441 -0.007858269847929478 0.3014421761035919 0.1172076016664505 0.052584100514650345 -0.143732950091362 0.16260993480682373 -0.016795914620161057 -0.25016337633132935 0.2165347933769226 -0.03716466203331947 -0.5390841364860535 0.003154575591906905 0.1106140986084938 0.17590267956256866 -0.487998366355896 -0.0390196330845356 0.008903306908905506
32 -0.04946574941277504 -0.030988316982984543 -0.25062865018844604 0.021141845732927322 0.08580821752548218 -0.24387189745903015 0.06906755268573761 0.09099791198968887 -0.056793149560689926 -0.0949164405465126 -0.06389499455690384 0.1833755224943161 0.36919063329696655 0.0613345205783844 0.0971062183380127 0.039066240191459656 0.013562248088419437 0.2501020133495331 0.011417205445468426 -0.04251150041818619 -0.3807987570762634 0.1728340983390808 -0.40812167525291443 -0.17769330739974976 0.05807537958025932 -0.4682953357696533 -0.05495160445570946 0.10965016484260559 0.1729951649904251 -0.4895026981830597 -0.19000792503356934 0.05228719115257263
32 -0.39042267203330994 0.24609099328517914 -0.27336251735687256 0.10814765840768814 -0.16014933586120605 -0.18339410424232483 -0.2146952897310257 -0.10575313121080399 0.022984975948929787 -0.035737257450819016 0.27995291352272034 0.16887663304805756 0.2752549648284912 0.10016903281211853 0.29494258761405945 -0.02751273661851883 0.02955586090683937 0.15887364745140076 0.016032453626394272 0.2616683542728424 -0.05411527305841446 0.029795391485095024 -0.43255797028541565 -0.05112666264176369 -0.03319823741912842 -0.0014727177331224084 -0.22845011949539185 0.07969862967729568 0.176809623837471 -0.24865922331809998 -0.3640775680541992 -0.01659165509045124
32 -0.12691524624824524 -0.045098256319761276 -0.2716546356678009 -0.13891443610191345 0.06975557655096054 -0.012206444516777992 -0.1736251264810562 0.013585321605205536 -0.32003071904182434 0.08859837800264359 -0.21448993682861328 0.16427768766880035 0.3031823933124542 -0.07937625050544739 0.19001638889312744 0.17122802138328552 0.17283906042575836 -0.43685266375541687 0.010262848809361458 0.019367225468158722 -0.23602591454982758 -0.07696404308080673 0.03712797537446022 -0.04102129116654396 -0.026979660615324974 -0.21884889900684357 -0.06618203222751617 0.05618860572576523 0.29450011253356934 -0.2979201674461365 -0.05499880388379097 0.005337039474397898
32 -0.3175503611564636 0.13722577691078186 -0.14872494339942932 0.3010590970516205 -0.2285379022359848 -0.0005506910383701324 -0.33995211124420166 -0.03993082791566849 -0.034713927656412125 -0.25295624136924744 0.01642409712076187 0.07372648268938065 0.032293159514665604 0.2435266226530075 0.1673835963010788 -0.04714159294962883 0.033209238201379776 -0.1789807677268982 -0.06616760790348053 0.001272291992790997 -0.013932387344539165 -0.1865214854478836 -0.00175198120996356 0.029648300260305405 -0.026815960183739662 0.025771018117666245 -0.16489315032958984 0.13942193984985352 0.25718581676483154 -0.21475301682949066 -0.03726653382182121 0.03769749030470848
32 0.017235592007637024 0.17507319152355194 -0.1315871775150299 -0.13147947192192078 -0.27144813537597656 -0.06580331176519394 -0.2895466685295105 0.1636713296175003 -0.10996828973293304 -0.09416259825229645 -0.27248838543891907 0.06771489232778549 0.022023696452379227 0.054475087672472 0.3518822193145752 0.11651249974966049 0.137415811419487 -0.15360842645168304 0.025170791894197464 -0.010653321631252766 -0.10449761897325516 -0.10875742137432098 -0.28799310326576233 -0.07447409629821777 -0.14788255095481873 -0.0715610682964325 0.033612918108701706 0.06491794437170029 -0.05918489396572113 -0.15737207233905792 -0.09939777106046677 -0.020247355103492737
32 -0.10978323221206665 -0.041608359664678574 0.027010750025510788 -0.12844936549663544 -0.1933487355709076 -0.04762144014239311 -0.17711840569972992 0.0459253303706646 0.005241874605417252 -0.20738795399665833 -0.13120633363723755 0.11509675532579422 -0.2019636183977127 -0.06416811794042587 0.01503993570804596 0.05671117454767227 0.06627202033996582 -0.0522170327603817 -0.2102275788784027 0.007298578508198261 0.1677750051021576 0.10938147455453873 0.15525859594345093 -0.24046951532363892 -0.012359865941107273 0.21383275091648102 0.04738198220729828 0.05412137508392334 -0.2617136240005493 0.13547253608703613 -0.01753176748752594 0.17961403727531433
32 0.06565052270889282 -0.26398542523384094 0.12652824819087982 0.05069630220532417 -0.16777969896793365 -0.21618658304214478 0.020822221413254738 -0.0138019984588027 0.28794997930526733 -0.048160240054130554 -0.37587815523147583 0.01984795741736889 -0.8218157887458801 -0.1848846971988678 0.08121082931756973 0.017992261797189713 0.12017315626144409 -0.10181229561567307 -0.08748135715723038 0.17784589529037476 0.21901580691337585 0.14518798887729645 -0.1359909623861313 -0.08594407141208649 0.04952719807624817 0.0431549996137619 -0.11664941161870956 -0.07532091438770294 -0.35570767521858215 0.19973786175251007 -0.08636780083179474 -0.06819679588079453
32 -0.5527335405349731 -0.29398313164711 0.2698031961917877 0.054050445556640625 0.5288949608802795 -0.10021313279867172 0.21120253205299377 0.19226382672786713 -0.1268450915813446 0.14048801362514496 0.10608945041894913 -0.16778521239757538 0.009888277389109135 -0.17694278061389923 0.12044357508420944 -0.15699490904808044 0.1622738242149353 -0.025828171521425247 0.37858647108078003 -0.28027912974357605 0.11552304774522781 -0.22266311943531036 -0.45578980445861816 0.5888105630874634 0.15241986513137817 -0.217631533741951 -0.1479497253894806 0.20152854919433594 0.5274282097816467 -0.6047155857086182 -0.05060213431715965 -0.13538570702075958
32 -0.7559781670570374 -0.1244264468550682 0.2838139533996582 -0.03451712802052498 0.09057889878749847 0.02102457731962204 0.17913541197776794 0.05137120187282562 -0.13359446823596954 0.13678379356861115 0.2894442081451416 -0.07707320153713226 0.15334241092205048 -0.02776091918349266 -0.05560347065329552 0.16039691865444183 -0.009024797938764095 0.06610926985740662 -0.06711581349372864 -0.2079111933708191 -0.09051351994276047 -0.25028201937675476 -0.22647617757320404 0.29847943782806396 0.12772075831890106 -0.31265220046043396 -0.08650124818086624 0.16238152980804443 0.34753546118736267 -0.40928852558135986 0.1648077815771103 -0.06704841554164886
32 -0.4159267246723175 -0.03738560900092125 0.24362292885780334 -0.07158457487821579 0.058052174746990204 0.02810491994023323 0.0027244456578046083 0.018121827393770218 -0.09485911577939987 0.33314812183380127 0.3351455330848694 0.08996888995170593 0.06949327141046524 0.1743464469909668 0.22087803483009338 0.1284821331501007 -0.16993644833564758 -0.3777933120727539 0.16078399121761322 -0.007050987798720598 -0.030648311600089073 -0.0035424204543232918 -0.19244176149368286 -0.0860285609960556 -0.03624831885099411 -0.025941314175724983 -0.3147537410259247 0.12918700277805328 0.31217268109321594 -0.2768951952457428 -0.07933684438467026 0.044273629784584045
32 -0.4562796354293823 0.0011641491437330842 0.21667185425758362 0.1761430948972702 0.13817279040813446 0.02769779972732067 -0.34436047077178955 -0.08342491835355759 0.1681739240884781 0.21063698828220367 0.3620549142360687 0.038807906210422516 0.16932474076747894 0.27768674492836 0.038274068385362625 0.3454955220222473 -0.4801551103591919 -0.3334314823150635 0.0370776429772377 -0.10390949994325638 -0.13659416139125824 -0.007519521750509739 -0.12185526639223099 -0.12883298099040985 0.007780341897159815 0.0701679214835167 -0.1935851126909256 0.1886703073978424 0.08853805065155029 -0.059319425374269485 0.06789696961641312 0.14992909133434296
32 -0.14159539341926575 -0.017126651480793953 0.16053993999958038 -0.0071848114021122456 0.20918235182762146 0.11607460677623749 -0.34266164898872375 0.12741424143314362 0.14107745885849 0.4337218701839447 0.23063188791275024 0.1502315104007721 0.08102328330278397 0.26497194170951843 0.20911380648612976 0.48872479796409607 -0.2988561689853668 -0.1741989403963089 -0.00804066937416792 0.06948628276586533 -0.12013278901576996 -0.0875912457704544 -0.27414461970329285 -0.057656168937683105 -0.06792247295379639 0.020330721512436867 -0.29476937651634216 0.149186372756958 -0.04266165941953659 -0.2974425256252289 0.1559096723794937 0.0766577273607254
32 -0.3845560550689697 0.09968844801187515 0.059343207627534866 0.020832477137446404 0.09917882084846497 0.11562180519104004 -0.07949844747781754 0.00997998472303152 0.18470807373523712 0.09291254729032516 0.231610968708992 0.06356161832809448 -0.16071099042892456 0.0870569571852684 0.24614864587783813 0.2697386145591736 -0.24567477405071259 -0.09836779534816742 -0.1802021861076355 0.18821391463279724 0.09945867955684662 0.15089315176010132 -0.36859458684921265 0.06320077180862427 -0.0624716579914093 -0.09614606201648712 -0.3670479655265808 0.14929305016994476 -0.03661595657467842 -0.36428919434547424 0.10914816707372665 -0.029645821079611778
32 -0.19047635793685913 -0.08375446498394012 0.05722486972808838 -0.1577998697757721 0.29507261514663696 0.17770232260227203 0.02030845731496811 0.1969011425971985 -0.1404973715543747 -0.0023329947143793106 0.07395531982183456 0.10335765033960342 -0.4606168270111084 0.18962079286575317 0.04010602459311485 0.306814581155777 -0.03622782602906227 -0.22293198108673096 -0.18442414700984955 0.024715794250369072 -0.25891178846359253 0.36187073588371277 -0.22057326138019562 0.09130076318979263 -0.08982399851083755 -0.11752837896347046 -0.30499643087387085 0.04502905532717705 -0.1994723230600357 -0.06904596090316772 0.06831242889165878 0.09208668768405914
32 -0.5002388954162598 0.11793458461761475 0.21719355881214142 0.07294398546218872 0.1978498101234436 0.15297406911849976 0.09915521740913391 0.009481015615165234 0.12041705846786499 -0.33089151978492737 0.05777626484632492 -0.12425148487091064 -0.827825129032135 -0.04556538909673691 -0.1982409805059433 0.2705320417881012 -0.01226474717259407 -0.038386955857276917 -0.24191901087760925 0.027302870526909828 0.09773100912570953 0.01721731759607792 -0.43294844031333923 0.3569839596748352 0.044938795268535614 -0.03343167528510094 -0.08453782647848129 -0.20893314480781555 -0.3785923421382904 0.10419944673776627 0.08987058699131012 -0.005514950025826693
32 -0.7011563181877136 -0.4638938307762146 0.47899940609931946 0.3166910707950592 0.4334333539009094 0.10071291774511337 0.5249881148338318 0.27427613735198975 0.03306470811367035 0.06944092363119125 0.5282612442970276 -0.2486938238143921 0.1689596176147461 -0.08072603493928909 -0.047445520758628845 0.020243089646100998 -0.5037617087364197 -0.02649150788784027 0.1196679025888443 -0.04614467918872833 0.2190828025341034 -0.20213671028614044 0.03862139210104942 0.5568529963493347 0.29617980122566223 -0.22382852435112 0.10087738186120987 0.24141483008861542 0.4671694338321686 -0.35459011793136597 0.10760322958230972 -0.03680533543229103
32 -0.8818874955177307 -0.1691000908613205 0.47033974528312683 -0.14962910115718842 0.1410742849111557 0.13609643280506134 0.30907654762268066 0.23394596576690674 -0.08065186440944672 0.24665258824825287 0.32740673422813416 -0.05185508355498314 0.1348462998867035 -0.0044562676921486855 0.036457937210798264 -0.20803509652614594 -0.32324478030204773 -0.14697767794132233 0.4062436521053314 -0.003612695261836052 0.05851557105779648 -0.04744039475917816 0.06620225310325623 0.40804752707481384 0.3815555274486542 0.10934866964817047 -0.05349806696176529 0.37460434436798096 0.29253071546554565 -0.4592697322368622 0.30915123224258423 -0.19331593811511993
32 -0.6990671753883362 -0.22259928286075592 0.4174965023994446 0.08155271410942078 0.07320413738489151 0.20956499874591827 0.1204131469130516 0.18256133794784546 0.24929291009902954 0.23029109835624695 0.3813665509223938 0.0022971155121922493 0.17125846445560455 -0.0025675310753285885 0.11775677651166916 0.02374042570590973 -0.31127047538757324 0.09501257538795471 0.3686984181404114 -0.00750690046697855 0.09770520031452179 0.06265899538993835 -0.0483095645904541 0.2757319211959839 0.12151925265789032 0.07030244916677475 0.08314662426710129 0.20871184766292572 0.327455997467041 -0.08406587690114975 0.23609989881515503 -0.175602525472641
32 -0.5117065906524658 -0.22200389206409454 0.32308050990104675 0.05266963317990303 0.4272271394729614 0.16594180464744568 -0.08357296884059906 0.18918360769748688 -0.0678783729672432 0.38771018385887146 0.15911155939102173 -0.007549534551799297 0.3782172203063965 -0.1367347091436386 0.13217997550964355 0.13708749413490295 -0.29279711842536926 -0.18622428178787231 0.49651050567626953 0.10917633026838303 0.16014084219932556 0.10121103376150131 -0.021628141403198242 -0.2089797854423523 0.0411478690803051 0.19644854962825775 0.15979903936386108 0.32054421305656433 0.20605793595314026 0.044524528086185455 0.14246998727321625 -0.013607748784124851
32 -0.3967849016189575 -0.08879230916500092 0.29516667127609253 0.5102394819259644 0.2339511513710022 0.2965473532676697 -0.12692078948020935 0.07582952082157135 0.24144841730594635 0.3121143579483032 0.3909449875354767 -0.009682211093604565 0.21375338733196259 0.011462816968560219 0.19557934999465942 0.10999841243028641 -0.28377580642700195 0.07757584750652313 0.0483972392976284 -0.07586706429719925 0.22249630093574524 0.1460573673248291 -0.2999893128871918 0.08042678982019424 0.23266127705574036 0.11011973023414612 -0.015902331098914146 0.21703290939331055 0.09567626565694809 -0.11184212565422058 0.18539643287658691 0.008517283946275711
32 -0.32423484325408936 0.05588770657777786 0.17901000380516052 0.16763892769813538 0.48452532291412354 0.49079176783561707 0.20405049622058868 0.31036892533302307 -0.17666497826576233 0.24752463400363922 0.24440722167491913 -0.07044389843940735 -0.048480018973350525 0.08054549992084503 0.28090715408325195 0.5114850997924805 -0.34108588099479675 -0.07302894443273544 -0.02895461767911911 0.2729194462299347 0.18311893939971924 0.24190887808799744 -0.437273234128952 0.16867560148239136 -0.04378576576709747 -0.15521679818630219 -0.044344350695610046 0.11381553113460541 0.0181618332862854 -0.20176348090171814 0.23427703976631165 0.09134748578071594
32 -0.40856656432151794 0.07883765548467636 0.19788673520088196 0.23506544530391693 0.42295169830322266 0.6463060975074768 0.28144291043281555 0.25386562943458557 0.26565083861351013 -0.0020991379860788584 0.3827787935733795 -0.19474025070667267 -0.23324401676654816 0.13164319097995758 -0.03544929251074791 0.18323932588100433 -0.06509630382061005 -0.06874532252550125 -0.1710127294063568 0.09635081887245178 0.12498746067285538 0.07857031375169754 -0.49956461787223816 0.3166036605834961 0.2641797959804535 -0.10801522433757782 -0.06957770138978958 0.018490100279450417 -0.11160527914762497 -0.20508027076721191 0.09275609254837036 0.1259724497795105
32 -0.24990279972553253 0.3108881413936615 0.25287678837776184 0.00452420674264431 0.6745404005050659 0.5345712304115295 0.484870970249176 0.3002692759037018 -0.10636017471551895 -0.006180665455758572 0.3690779507160187 -0.16540350019931793 -0.056205663830041885 0.016397709026932716 -0.0714304968714714 0.2894502282142639 -0.08264285326004028 -0.16129083931446075 -0.024057820439338684 0.23451794683933258 0.07671529799699783 -0.14024390280246735 -0.4384157359600067 0.4983908236026764 0.02472187578678131 -0.345685213804245 0.023965824395418167 -0.05387269705533981 0.09145975857973099 0.1257319301366806 0.15888305008411407 -0.043644070625305176
32 -0.0737435445189476 0.03689173236489296 0.17820271849632263 0.07866877317428589 0.33570435643196106 -0.060260578989982605 0.3434852957725525 0.21498069167137146 -0.30601295828819275 0.14278319478034973 0.3282223343849182 -0.014333716593682766 0.14287900924682617 -0.09735461324453354 -0.032480157911777496 -0.2996664047241211 -0.5471848249435425 -0.15041635930538177 0.5044713616371155 0.06381243467330933 0.16428989171981812 -0.1558838039636612 0.2164185345172882 0.10436966270208359 0.06776971369981766 0.056499630212783813 0.02500762604176998 0.19660179316997528 0.45876404643058777 -0.23654451966285706 0.056628596037626266 -0.09442600607872009
32 -0.6940926909446716 0.04503495991230011 0.2305120974779129 0.2529515326023102 0.18202337622642517 0.061387594789266586 0.271154522895813 0.19755548238754272 0.02717617340385914 0.22618912160396576 0.32424116134643555 -0.13575120270252228 0.19661331176757812 -0.06151917949318886 -0.1116349846124649 -0.15814101696014404 -0.6225646734237671 0.12959857285022736 0.380858451128006 0.050320859998464584 0.0027114287950098515 -0.20561537146568298 -0.054793860763311386 0.43799498677253723 0.149865984916687 0.26710665225982666 -0.015383525751531124 0.3072749078273773 0.30132928490638733 -0.25023508071899414 0.37845030426979065 -0.24397678673267365
32 -0.4251791834831238 -0.10205759853124619 0.18590694665908813 0.23369373381137848 -0.0221724770963192 0.19407279789447784 0.16195203363895416 0.3356074392795563 0.02830316685140133 0.3677995800971985 0.22921279072761536 -0.02019631862640381 0.27621859312057495 0.09495949000120163 0.11662638187408447 -0.08658348023891449 -0.5724859833717346 -0.03669312596321106 0.5827866196632385 0.2696975767612457 0.23656365275382996 0.09095805138349533 0.2920619249343872 0.20990194380283356 0.07424817234277725 0.1990019679069519 0.14068381488323212 0.36803463101387024 0.49137797951698303 0.037057794630527496 0.3389309048652649 -0.28591129183769226
32 -0.08961611241102219 -0.038976043462753296 0.22328990697860718 0.32025280594825745 0.26887568831443787 0.2640841603279114 0.27433598041534424 0.18518637120723724 0.013219988904893398 0.3144005537033081 0.3737380802631378 0.044122230261564255 0.25559231638908386 0.12835946679115295 -0.0034701351542025805 -0.022943291813135147 -0.48512962460517883 0.19829541444778442 0.3976396918296814 0.20837637782096863 0.19977052509784698 0.11476599425077438 0.2296200394630432 0.11692435294389725 0.24679993093013763 0.18890947103500366 0.034533627331256866 0.39432138204574585 0.34307175874710083 0.23985163867473602 0.286065936088562 -0.1657441109418869
32 -0.3088279068470001 0.15348556637763977 0.12986084818840027 0.40746739506721497 0.2697655260562897 0.4555230736732483 0.386522501707077 0.23173245787620544 -0.1905253529548645 0.31244680285453796 0.13757161796092987 -0.07175087183713913 0.192562535405159 0.22097116708755493 0.02547457441687584 0.14739102125167847 -0.44943928718566895 0.11743392795324326 0.15011213719844818 0.02006540261209011 0.2929384708404541 0.3122347295284271 0.05946345627307892 0.11947347223758698 0.19261515140533447 -0.15052855014801025 0.14374147355556488 0.1956532746553421 0.21932002902030945 0.3958671987056732 0.2677319049835205 0.13906213641166687
32 -0.438688725233078 0.12532790005207062 0.06836345046758652 0.22700083255767822 0.3697202801704407 0.5051802396774292 0.2806137800216675 0.292224645614624 -0.057351481169462204 0.2698330283164978 0.25740134716033936 -0.06849255412817001 0.11979260295629501 0.23926103115081787 -0.007647281512618065 0.11767207086086273 -0.11591406911611557 0.20327788591384888 -0.11140000820159912 -0.12027060985565186 0.2593849301338196 0.21794968843460083 -0.30443254113197327 0.19507306814193726 0.2846102714538574 -0.2580063045024872 -0.13370034098625183 0.12150686979293823 0.08263710141181946 0.2653701603412628 0.2775406837463379 0.2396266907453537
32 -0.4355347752571106 0.12993302941322327 0.22832255065441132 0.16904878616333008 0.40753185749053955 0.5514089465141296 0.5137888789176941 0.2971945106983185 -0.24969488382339478 0.23874697089195251 0.22664548456668854 -0.012045648880302906 0.0662323608994484 0.20547793805599213 -0.03885308653116226 0.2349551022052765 -0.04238611087203026 0.13183312118053436 -0.08095397800207138 -0.06024083122611046 0.1802595853805542 0.1483723372220993 -0.24916411936283112 0.1624072939157486 0.19449588656425476 -0.20432327687740326 0.26762834191322327 0.0262636486440897 0.05545443668961525 -0.18172398209571838 0.32587289810180664 0.26304373145103455
32 -0.37586742639541626 0.001724829082377255 0.2665201425552368 0.10913288593292236 0.2693491578102112 0.3657476603984833 0.3785184621810913 0.19661828875541687 0.0616648830473423 0.13992227613925934 0.1854427456855774 0.07497842609882355 0.1832335740327835 0.07786032557487488 -0.037216413766145706 0.3896503746509552 -0.04704326018691063 0.2708294987678528 -0.08126038312911987 0.1713394969701767 0.2660479247570038 -0.04796971380710602 -0.23215876519680023 0.10537880659103394 0.2014589011669159 -0.21093834936618805 0.007924379780888557 -0.08570319414138794 0.3993183672428131 -0.1816263645887375 0.22354914247989655 0.32314425706863403
32 0.10567022860050201 -0.17676423490047455 0.21595248579978943 0.2717314660549164 0.23449599742889404 0.04048104211688042 0.17830611765384674 0.3313385248184204 -0.2750711441040039 -0.1081736832857132 0.16603489220142365 0.012116503901779652 0.06916092336177826 0.10483269393444061 -0.09914938360452652 -0.24468526244163513 -0.7643482089042664 0.013001051731407642 0.4890073835849762 0.08067094534635544 0.11879466474056244 -0.3392525613307953 0.18082131445407867 -0.3746289312839508 0.18046410381793976 -0.15255282819271088 -0.005833556409925222 0.23503807187080383 0.41440194845199585 -0.4357903003692627 0.08458442986011505 0.139805406332016
32 -0.34426364302635193 -0.11555495858192444 0.17592261731624603 0.28757113218307495 0.19061344861984253 0.146268829703331 0.09591179341077805 -0.0910891741514206 -0.25900769233703613 0.05050787329673767 0.2531147599220276 -0.0201644878834486 0.16219858825206757 -0.37466326355934143 -0.12485670298337936 -0.6238921880722046 -0.7371747493743896 -0.06816259771585464 0.559730052947998 0.0794440358877182 0.17187586426734924 -0.25881093740463257 0.1159350648522377 -0.1296023279428482 0.1456388533115387 0.0984969511628151 0.017534008249640465 0.2862522006034851 0.009703480638563633 -0.4075887203216553 0.3382693827152252 -0.06701239943504333
32 -0.1721462905406952 0.23604010045528412 0.1217585876584053 0.4172937870025635 0.10438856482505798 0.17281092703342438 0.18295300006866455 0.11137285828590393 -0.26016831398010254 0.20310576260089874 0.20248554646968842 0.15293720364570618 0.2285050004720688 -0.050236474722623825 0.01495431549847126 -0.4217188358306885 -0.8284069895744324 -0.06674167513847351 0.4492802023887634 0.06736190617084503 0.13488683104515076 0.08313613384962082 0.18042120337486267 0.03800898790359497 -0.04112319275736809 0.07491717487573624 0.027089610695838928 0.27715206146240234 0.13462570309638977 -0.11200879514217377 0.3937413692474365 -0.1202126145362854
32 -0.03459184616804123 0.24257269501686096 0.19937291741371155 0.47559648752212524 0.16036726534366608 0.34187936782836914 0.1511181741952896 0.1602538824081421 0.06665337085723877 0.3073558211326599 0.39672163128852844 0.09898460656404495 0.23694945871829987 0.13624083995819092 -0.13984616100788116 -0.43108147382736206 -0.6427000761032104 0.10626724362373352 0.36031389236450195 0.25689345598220825 0.28475716710090637 0.18019840121269226 0.521016001701355 0.20365960896015167 -0.017072154209017754 -0.011131586506962776 0.09502505511045456 0.3685579001903534 0.4214024543762207 0.021951759234070778 0.32141029834747314 0.051201388239860535
32 -0.1682722270488739 0.1807006299495697 0.25347158312797546 0.1885242760181427 0.31404536962509155 0.33558088541030884 0.2632276713848114 0.11876991391181946 -0.06874217838048935 0.19130203127861023 0.1598420888185501 0.1682596206665039 0.233117938041687 0.18602430820465088 -0.20635607838630676 0.14518150687217712 -0.5995772480964661 0.23805169761180878 0.04573782533407211 0.12768636643886566 0.34157299995422363 0.31192827224731445 0.09807350486516953 0.10972052067518234 0.06978204846382141 -0.371294766664505 -0.3128957152366638 0.33986619114875793 0.3512902855873108 0.3398151397705078 0.3766355812549591 0.17353256046772003
32 -0.33260226249694824 0.02684825472533703 0.13565638661384583 -0.04659566655755043 0.020456625148653984 0.4508480131626129 0.09674889594316483 0.22124001383781433 -0.06410464644432068 0.12012653052806854 0.15213219821453094 0.2589643597602844 0.06292491406202316 0.4276653528213501 -0.2892009913921356 0.2023644745349884 -0.20436957478523254 0.24713972210884094 -0.012164711952209473 -0.01953275315463543 0.34558141231536865 0.39826351404190063 -0.19542023539543152 -0.35425660014152527 0.18407514691352844 -0.5097253322601318 -0.055142972618341446 0.20587840676307678 0.21508002281188965 0.29810982942581177 0.38896986842155457 0.2852460443973541
32 -0.42933741211891174 -0.02271183207631111 0.15678362548351288 -0.17455536127090454 -0.06879156082868576 0.15155550837516785 0.13807031512260437 -0.015646079555153847 0.1895981878042221 0.2064681202173233 0.14054252207279205 0.1567964106798172 0.11476362496614456 0.1995898336172104 -0.2615531384944916 -0.05415256693959236 -0.3158643841743469 0.2617691457271576 -0.14859157800674438 0.15718437731266022 0.39076143503189087 0.18383072316646576 -0.2712496519088745 -0.09980073571205139 0.16220800578594208 -0.2746281623840332 -0.33450108766555786 0.042178843170404434 0.124265156686306 -0.248035728931427 0.20638424158096313 0.25232991576194763
32 -0.3732571601867676 -0.08246218413114548 0.19389043748378754 0.04006701335310936 -0.020130857825279236 -0.021599985659122467 0.03428104519844055 0.07057001441717148 0.37044432759284973 0.052012912929058075 0.36663904786109924 0.307762086391449 0.08204838633537292 0.10773031413555145 -0.3817789852619171 0.2585395872592926 -0.30900976061820984 0.19150863587856293 0.14680317044258118 -0.06517113000154495 0.19937458634376526 0.03998521715402603 -0.1425185352563858 -0.1557561457157135 0.23077064752578735 -0.1819203794002533 0.03121127560734749 -0.020731991156935692 0.40001386404037476 0.031204169616103172 0.21392682194709778 0.3306235671043396
32 -0.5796261429786682 -0.2515576183795929 0.5310866236686707 0.2422575205564499 0.47262096405029297 0.01029601413756609 -0.1029987633228302 0.11501678824424744 -0.13103075325489044 0.03855620324611664 0.16999271512031555 0.03240210935473442 -0.03187213093042374 -0.05599573627114296 0.0075255041010677814 -0.3735397160053253 -0.7696525454521179 -0.14617808163166046 0.4619830846786499 0.029748577624559402 0.008450116030871868 -0.40242335200309753 0.009690787643194199 -0.06109268218278885 0.26658689975738525 0.055534765124320984 0.11273807287216187 0.14599758386611938 0.26767948269844055 -0.08519594371318817 0.17859143018722534 0.1792229562997818
32 -0.5458394289016724 -0.18195608258247375 0.38286149501800537 0.05202069878578186 0.37222084403038025 0.05662369728088379 0.05422479286789894 0.1350020468235016 -0.15052495896816254 -0.015519782900810242 0.279026597738266 -0.13517087697982788 0.1244405135512352 0.2199295163154602 -0.06235942617058754 -0.8668666481971741 -1.0465176105499268 -0.06156152859330177 0.3543803095817566 -0.15823811292648315 0.1280948966741562 -0.17403212189674377 -0.018229655921459198 -0.008662770502269268 0.2755245268344879 0.03271406888961792 0.035389307886362076 0.31225666403770447 0.2793053388595581 -0.2965242564678192 0.3597099483013153 0.0820573940873146
32 0.08069335669279099 -0.0160901490598917 0.2830909192562103 0.25082847476005554 0.31994277238845825 0.11796256899833679 -0.014103530906140804 0.33603960275650024 -0.2512849271297455 0.14130887389183044 0.2337183803319931 -0.08457812666893005 0.09833382070064545 0.07171211391687393 0.02758822962641716 -0.5710065364837646 -1.0467075109481812 0.19348403811454773 0.3207142949104309 0.0648181289434433 0.062443166971206665 -0.09600119292736053 0.14474117755889893 -0.02431335113942623 0.07684534788131714 -0.19360241293907166 0.1433275043964386 0.3036995530128479 0.2261248081922531 -0.21685786545276642 0.36055466532707214 0.07345015555620193
32 0.029494667425751686 0.24204319715499878 0.3294299244880676 0.32653358578681946 0.1994662880897522 0.19164034724235535 -0.0879073441028595 0.06553534418344498 -0.09679675847291946 0.10004595667123795 0.29906129837036133 -0.02805161103606224 0.2726956307888031 0.21657317876815796 -0.49049112200737 -0.3586137294769287 -1.1460474729537964 0.24660737812519073 0.354323148727417 0.23303984105587006 0.27119702100753784 0.0894106775522232 0.309710830450058 0.040056586265563965 -0.023510010913014412 -0.10761912167072296 -0.0787326917052269 0.3378978371620178 0.288957804441452 -0.2660074234008789 0.21665403246879578 0.1218307688832283
32 0.0014511081390082836 0.34181448817253113 0.19474710524082184 0.14211827516555786 0.2628098726272583 0.2843554615974426 0.16954824328422546 0.10031554102897644 -0.2786276936531067 0.3091225028038025 0.3014405071735382 0.06028829514980316 0.10306969285011292 0.20984257757663727 -0.3025389313697815 0.3492419123649597 -0.8466249704360962 0.30943408608436584 0.19450214505195618 0.018467629328370094 0.30899304151535034 0.3588494062423706 0.14759384095668793 0.285186231136322 0.018902350217103958 -0.49481961131095886 -0.4439443349838257 0.3692755401134491 0.4773840010166168 -0.06399334967136383 0.3726993203163147 0.2410200834274292
32 -0.18451537191867828 0.30093979835510254 0.20607304573059082 -0.20585288107395172 0.20365263521671295 0.22389692068099976 0.0008474806672893465 0.16166047751903534 -0.0873323306441307 0.15530559420585632 0.2982880175113678 0.011542857624590397 -0.04235226288437843 0.1451292783021927 -0.3925591707229614 0.265815407037735 -0.5569052696228027 0.3662445843219757 -0.027829008176922798 0.023016253486275673 0.266899049282074 0.26602253317832947 -0.26437854766845703 -0.13753244280815125 -0.046895354986190796 -0.2138141542673111 -0.6636641621589661 0.14238987863063812 0.4713481366634369 0.02164890430867672 0.15402774512767792 0.3542560040950775
32 -0.46667763590812683 0.18535169959068298 0.16436271369457245 -0.13066940009593964 0.16739436984062195 0.12542521953582764 -0.12042398005723953 0.3009471595287323 0.0965641587972641 -0.029182277619838715 0.2575390934944153 -0.12353818863630295 0.16702693700790405 0.3023179769515991 -0.1676943302154541 0.22507822513580322 -0.4687935709953308 0.04911953583359718 0.07370688766241074 0.19108743965625763 0.1919955015182495 0.22507518529891968 -0.25664272904396057 -0.12423291057348251 -0.013266255147755146 -0.02978978306055069 -0.3282128572463989 -0.013732322491705418 0.15515029430389404 -0.021372703835368156 0.14463011920452118 0.26279622316360474
32 -0.38070234656333923 0.12444042414426804 0.1543087512254715 -0.04717934504151344 0.3966398239135742 0.14154042303562164 0.10971450805664062 0.26676133275032043 -0.013808077201247215 0.14866836369037628 0.35774150490760803 -0.0012300674570724368 0.04412579908967018 0.3487818241119385 0.05795123800635338 -0.3042260706424713 -0.3496452569961548 0.09051712602376938 0.21733075380325317 0.23322103917598724 0.15332436561584473 0.16979515552520752 -0.24859139323234558 -0.23325420916080475 0.1864732801914215 -0.23370718955993652 -0.21508249640464783 -0.021957682445645332 0.21507957577705383 -0.24432559311389923 0.09491002559661865 0.15805914998054504
32 -0.674121618270874 -0.3342668116092682 0.46562716364860535 -0.39310282468795776 0.5358108878135681 -0.2911710739135742 -0.25785398483276367 0.10385390371084213 -0.42202210426330566 -0.20818191766738892 0.11662224680185318 0.07275216281414032 -0.1391056627035141 -0.007780429441481829 -0.06647677719593048 -0.5709850192070007 -0.7823684215545654 0.02833072654902935 0.31126925349235535 -0.12671597301959991 -0.03231045976281166 -0.3910980820655823 -0.4137841761112213 -0.48308902978897095 0.2296847254037857 -0.33627617359161377 -0.035688139498233795 0.19202546775341034 0.32610782980918884 -0.5255146622657776 0.1645641326904297 0.2240799218416214
32 -0.6484525799751282 -0.883300244808197 0.5923169255256653 -0.2481991946697235 0.24812185764312744 -0.21039022505283356 -0.062322307378053665 0.3291894495487213 -0.30631619691848755 -0.022238407284021378 0.34808674454689026 -0.27631741762161255 -0.09215077757835388 -0.2500729262828827 -0.2235124111175537 -0.7742637991905212 -0.9051018357276917 0.01599329151213169 0.41500329971313477 0.2959308624267578 0.16641077399253845 -0.5558863878250122 -0.41651439666748047 -0.5374045968055725 0.16890543699264526 -0.2116597294807434 0.09294899553060532 0.3494170308113098 0.339874267578125 -0.11380284279584885 0.198399156332016 0.11131103336811066
32 -0.08605995029211044 -0.6801815629005432 0.3991212844848633 -0.009812403470277786 0.2689552307128906 -0.06650662422180176 -0.345561683177948 0.116840660572052 -0.2938976287841797 -0.15449649095535278 0.3969250023365021 -0.18159496784210205 0.005294881761074066 -0.10893853008747101 -0.5202844738960266 -0.6879996061325073 -1.003522276878357 0.04032250866293907 0.27673420310020447 0.24628646671772003 0.07579511404037476 -0.3547632396221161 -0.15152999758720398 -0.10483895242214203 0.149182990193367 -0.2543407380580902 0.1369253695011139 0.2818230986595154 -0.23300626873970032 -0.12430990487337112 0.3605806231498718 0.056733425706624985
32 0.12983964383602142 0.08648619055747986 0.31686931848526 0.222990021109581 0.12193369120359421 -0.1289980560541153 -0.5159779787063599 0.07130059599876404 -0.20824235677719116 0.22524400055408478 0.2471335232257843 -0.10795003175735474 0.1366964727640152 -0.19689823687076569 -0.3424694836139679 -0.7223149538040161 -0.9769043922424316 0.2609730362892151 0.30047470331192017 0.2680780589580536 0.1594000607728958 -0.11230025440454483 0.017477210611104965 -0.5328249931335449 0.037365250289440155 -0.4119300842285156 0.024519190192222595 0.32908129692077637 0.3056924045085907 -0.39941859245300293 0.15476328134536743 0.051156263798475266
32 -0.07793144136667252 -0.020391881465911865 0.19636498391628265 0.29764559864997864 0.21505104005336761 0.025282148271799088 -0.1812838315963745 0.10509530454874039 -0.18353572487831116 0.12499959766864777 0.10588909685611725 0.10762955993413925 0.13315513730049133 -0.08837702870368958 -0.44376200437545776 -0.20740185678005219 -0.7079504728317261 0.24663159251213074 0.09535806626081467 0.029588470235466957 0.11654988676309586 0.21912561357021332 0.19838771224021912 -0.6665908098220825 -0.18277713656425476 -0.36621466279029846 -0.6057054996490479 0.17661435902118683 0.5489416122436523 -0.2578105032444 0.09185001254081726 0.07189152389764786
32 -0.26813805103302 0.24796918034553528 0.1093466654419899 0.27052634954452515 0.23777776956558228 0.06740857660770416 -0.5135749578475952 0.2293873429298401 -0.1912345290184021 0.028804108500480652 0.37804168462753296 0.07816600799560547 0.040621548891067505 -0.1596793234348297 -0.3648572266101837 -0.06852991133928299 -0.4875527024269104 0.17430797219276428 0.061893586069345474 0.2539302110671997 0.14213579893112183 0.10995659977197647 0.014137504622340202 -0.44299861788749695 -0.34154534339904785 -0.35764873027801514 -0.5246684551239014 -0.03859344497323036 0.23906247317790985 -0.16490373015403748 -0.08718089014291763 0.18553176522254944
32 -0.12231142818927765 0.07480096817016602 -0.13681963086128235 0.001178976846858859 0.3997059762477875 -0.026965036988258362 -0.2857946455478668 0.3220033049583435 -0.1381104290485382 -0.15807001292705536 0.4006793797016144 0.009845742024481297 0.04714474081993103 -0.03601705655455589 -0.2705309987068176 -0.24052013456821442 -0.6392208337783813 0.07205640524625778 0.2135104238986969 0.3983531892299652 0.05755133181810379 0.06454498320817947 -0.056714482605457306 -0.21044278144836426 -0.14978089928627014 -0.36273184418678284 -0.5287543535232544 -0.17537175118923187 0.20126540958881378 -0.5888630151748657 -0.14196202158927917 0.42807719111442566
32 0.15491491556167603 0.3630301058292389 0.24231083691120148 0.20458102226257324 0.44305306673049927 0.015504839830100536 -0.027351979166269302 0.3763967752456665 -0.22491955757141113 -0.21206003427505493 0.3685947358608246 0.21654823422431946 -0.2296934574842453 -0.11013609915971756 -0.18811987340450287 0.22583116590976715 -0.5082311034202576 -0.02558577060699463 0.2524970471858978 0.1649697721004486 -0.07936691492795944 -0.012408316135406494 -0.24555453658103943 -0.26710110902786255 0.20719455182552338 -0.1693272441625595 -0.5243057608604431 -0.23630359768867493 0.17124773561954498 -0.21827149391174316 -0.10111845284700394 0.21672601997852325
32 0.16672363877296448 0.3217445909976959 -0.5335788130760193 0.04960208386182785 -0.16175433993339539 0.1793515384197235 0.1362227350473404 0.011655435897409916 0.5222344398498535 0.23098084330558777 -0.11620227247476578 -0.1787407100200653 0.08786221593618393 -0.16883696615695953 0.46835172176361084 0.20157748460769653 -0.1837543398141861 -0.18560375273227692 -0.43124350905418396 0.018846824765205383 -0.08988642692565918 0.31738319993019104 -0.3485037684440613 0.07944203913211823 -0.25820693373680115 0.43448856472969055 0.48948243260383606 0.02419884130358696 -0.3839776813983917 -0.5845348238945007 -0.09549041837453842 -0.06366530060768127
32 0.1066683903336525 0.33020511269569397 -0.8243663907051086 0.058287426829338074 0.0014119766419753432 0.23556530475616455 -0.09026727080345154 0.002443143166601658 0.4650956392288208 0.24374370276927948 -0.21458397805690765 0.07466177642345428 0.5937025547027588 -0.018145300447940826 0.48585012555122375 -0.006088354159146547 0.06746325641870499 0.27447962760925293 -0.20408190786838531 0.17569664120674133 -0.32315793633461 0.34518519043922424 -0.011262288317084312 0.031086193397641182 -0.3183719217777252 0.4827759265899658 0.15635058283805847 -0.2154695838689804 -0.08929714560508728 -0.4968140423297882 0.2065330296754837 0.10742434114217758
32 0.13976971805095673 0.3038633167743683 -0.7080435156822205 -0.0938868373632431 0.03692585974931717 0.16463087499141693 0.15676482021808624 -0.05059116706252098 0.4708796441555023 -0.2768116593360901 0.022127937525510788 0.05627204477787018 -0.26848891377449036 -0.062181342393159866 0.36862897872924805 -0.006415593437850475 0.37551161646842957 -0.8174675703048706 -0.41124191880226135 0.1280905157327652 -0.5512433052062988 0.3700486719608307 -0.40071621537208557 -0.046551767736673355 -0.18205919861793518 0.526650071144104 0.3890749216079712 0.029239989817142487 -0.20615823566913605 -0.293575257062912 0.14845718443393707 0.17470629513263702
32 -0.31813907623291016 0.22023914754390717 -0.5629122257232666 -0.14851170778274536 0.02178480662405491 0.1406061351299286 0.11879570782184601 0.1431625485420227 0.2729474902153015 0.21367430686950684 0.057743702083826065 0.06814152002334595 -0.7063321471214294 0.009391983039677143 0.28186577558517456 -0.0569247305393219 0.4860914945602417 -0.5404007434844971 -0.46521487832069397 0.053874220699071884 0.11316297948360443 0.08248740434646606 -0.28365251421928406 0.07733205705881119 0.12957459688186646 0.38586950302124023 0.286007285118103 0.1401469111442566 -0.4421727955341339 -0.20299537479877472 0.15228180587291718 0.14130747318267822
32 -0.1891462355852127 0.2478002905845642 -0.1640753448009491 -0.3834798038005829 -0.08184284716844559 0.19964897632598877 0.12015732377767563 0.051865529268980026 0.17722299695014954 0.1786891669034958 -0.30380040407180786 0.12334843724966049 0.19259098172187805 0.050416141748428345 0.32806915044784546 -0.14149530231952667 0.533941388130188 -0.7476001381874084 -0.3875409960746765 0.06743891537189484 -0.2202521413564682 -0.25484225153923035 -0.30824267864227295 0.026939161121845245 0.18671350181102753 0.3249376118183136 0.02430856227874756 0.24791604280471802 -0.2648106813430786 -0.45136794447898865 0.011060874909162521 0.22650925815105438
32 0.005711695179343224 0.1858471930027008 -0.15713509917259216 -0.3243958353996277 -0.6269466876983643 0.296750545501709 0.0005350284627638757 0.07524050027132034 0.2041621059179306 -0.10555440187454224 -0.36743342876434326 0.1390235275030136 -0.199874609708786 -0.011684957891702652 0.2943480312824249 0.06275595724582672 0.48603886365890503 -0.4583289623260498 -0.045729029923677444 -0.006067414302378893 -0.21971698105335236 -0.110963836312294 -0.6362415552139282 -0.09131262451410294 0.16784697771072388 0.29205191135406494 0.28711652755737305 0.11806979775428772 0.1261114627122879 -0.47162213921546936 0.3030177056789398 0.07750466465950012
32 0.08638397604227066 -0.07097072154283524 0.1120949313044548 -0.3028818964958191 -0.6736128330230713 0.014649765565991402 -0.23487895727157593 -0.12457104027271271 0.3502732515335083 0.32957831025123596 -0.31098130345344543 0.17652472853660583 -0.3520384430885315 0.05492342635989189 0.34467068314552307 0.023858724161982536 0.28693100810050964 -0.1657806634902954 -0.0367310494184494 -0.15275788307189941 0.10733471810817719 -0.015465224161744118 -0.6664128303527832 -0.4850415289402008 -0.06608396023511887 0.5716492533683777 0.38025444746017456 0.3303981423377991 -0.0168833676725626 -0.2619576156139374 0.20141783356666565 0.07084452360868454
32 0.11110363155603409 -0.5596680045127869 -0.1536765694618225 -0.14167453348636627 -0.7126654982566833 0.13252106308937073 -0.2392021268606186 -0.24515952169895172 -0.0010915801394730806 0.26827162504196167 -0.16157448291778564 -0.057870808988809586 -0.24104414880275726 0.17373690009117126 0.1988772600889206 -0.4489681124687195 -0.10478463768959045 -0.3388592004776001 0.15985792875289917 -0.1218157485127449 0.2539080083370209 0.17953883111476898 -0.5177724361419678 -0.26508548855781555 -0.08066076785326004 0.4085729718208313 0.3593301773071289 0.22330696880817413 0.067764051258564 -0.009398523718118668 0.07007447630167007 -0.17524519562721252
32 0.2795577645301819 0.30427834391593933 -0.3916114568710327 0.07111755758523941 0.08786068111658096 0.008498206734657288 0.03120053932070732 0.03859582915902138 0.5590656995773315 0.353311687707901 0.108911894261837 0.06405442208051682 0.031782135367393494 0.0013810645323246717 0.47779619693756104 -0.14300955832004547 -0.1290336400270462 -0.182144433259964 -0.03888632357120514 0.21797361969947815 0.4558410048484802 0.3288412094116211 -0.09672123938798904 -0.05086902156472206 -0.11894881725311279 0.5298638939857483 0.38225963711738586 -0.13893473148345947 0.11219046264886856 -0.25811126828193665 0.03580620139837265 0.03561057895421982
32 0.15973854064941406 0.3437167704105377 -0.3513425886631012 0.062237780541181564 0.1533256471157074 0.01739249750971794 -0.19585642218589783 0.09420179575681686 0.4681641161441803 0.39902809262275696 0.11562246829271317 0.22065065801143646 0.0015692443121224642 -0.17153584957122803 0.6272227764129639 0.09178388863801956 0.08823472261428833 0.1390872448682785 -0.16327625513076782 0.13297827541828156 0.006900289561599493 0.10537618398666382 -0.32992854714393616 -0.04628102853894234 0.08885104209184647 0.5068969130516052 0.2950178384780884 -0.0865650475025177 0.034878749400377274 0.335521399974823 -0.13343390822410583 0.12006702274084091
32 0.0004808837256859988 0.2139575332403183 -0.5312241911888123 -0.04988434538245201 0.11803506314754486 0.06420024484395981 0.025368642061948776 0.0872456282377243 0.21611161530017853 0.2539869546890259 0.21897412836551666 0.1709785908460617 -0.2213955819606781 0.04045327752828598 0.46440011262893677 0.06813305616378784 0.43985575437545776 -0.5951763987541199 -0.12764468789100647 0.07128053158521652 0.2124921828508377 0.0977759137749672 -0.5409801006317139 0.28820592164993286 0.09034694731235504 0.5618813633918762 0.34153440594673157 0.0675232782959938 -0.0695749819278717 0.19121332466602325 0.10698165744543076 0.3005237579345703
32 -0.022636031731963158 0.25558361411094666 -0.3363409638404846 -0.20735755562782288 -0.12191559374332428 0.032410815358161926 0.3027520477771759 0.25350087881088257 0.18633295595645905 0.18749476969242096 0.05024326220154762 0.2149468958377838 0.18687961995601654 0.09752847254276276 0.37019434571266174 0.16687729954719543 0.6096182465553284 -0.45563942193984985 -0.12482565641403198 0.01339700911194086 0.06036542356014252 0.1326219141483307 0.04586265981197357 0.1605900526046753 0.25998109579086304 0.49898964166641235 0.3744403123855591 0.03595038875937462 0.033325061202049255 0.3393442630767822 0.24221985042095184 0.21136097609996796
32 0.23943549394607544 0.2591587007045746 -0.18936039507389069 -0.001478096703067422 -0.2866564393043518 0.17734475433826447 0.0020860699005424976 0.3088528513908386 0.24736858904361725 0.15208934247493744 -0.306681752204895 0.47161078453063965 0.44868695735931396 0.14252494275569916 0.3067331612110138 0.30773070454597473 0.6453773379325867 0.22724229097366333 0.08946766704320908 0.25606805086135864 0.20507031679153442 -0.06735982745885849 -0.3079833686351776 0.20945240557193756 0.26789113879203796 0.27767181396484375 0.2877931296825409 0.12215860188007355 -0.08958674222230911 -0.04940830543637276 0.18980011343955994 0.23136503994464874
32 0.12493378669023514 0.21822556853294373 0.07921233028173447 0.04976516216993332 -0.206951305270195 0.1695820540189743 -0.2232045829296112 0.18935425579547882 0.03133535757660866 0.2275582104921341 -0.460090309381485 0.2961598336696625 0.13645754754543304 -0.02143971249461174 0.3220008909702301 0.3315310776233673 0.39408326148986816 0.10124390572309494 0.08045544475317001 0.13397657871246338 -0.09038341045379639 -0.03514959290623665 -0.39093753695487976 0.13170157372951508 0.16982051730155945 0.17160439491271973 0.5088105797767639 0.07954920083284378 -0.004399283789098263 -0.26854407787323 0.020504791289567947 0.13657644391059875
32 0.24093617498874664 0.01976439729332924 0.02947954460978508 -0.05139847844839096 -0.2684311866760254 -0.12116225063800812 -0.5830119848251343 0.08696805685758591 0.22256465256214142 0.13957710564136505 -0.0980280190706253 0.2487771362066269 -0.19341230392456055 0.03762940317392349 0.46126580238342285 0.23019376397132874 0.13422274589538574 0.18495379388332367 0.07707053422927856 0.08715057373046875 -0.0028779064305126667 0.000548790383618325 -0.3653774857521057 -0.3325941860675812 0.0937715619802475 0.3360440135002136 -0.0654454305768013 0.1917748600244522 0.08539354801177979 -0.3088665306568146 0.05582252889871597 0.08697812259197235
32 0.013032091781497002 0.009440509602427483 -0.04848659783601761 0.04412452504038811 -0.21397821605205536 -0.10416663438081741 -0.36021688580513 -0.03937210515141487 0.23721642792224884 0.20179222524166107 0.03753754869103432 0.049366533756256104 -0.2113945037126541 -0.02290169522166252 0.4374207854270935 0.11850772798061371 0.010086363181471825 0.29983171820640564 0.07878012210130692 0.17106246948242188 0.2236669808626175 0.37372496724128723 -0.31004586815834045 -0.7579573392868042 0.023913875222206116 0.3798823654651642 0.27746686339378357 0.23488777875900269 0.118557870388031 -0.3604879677295685 0.18607638776302338 0.12828853726387024
32 -0.22246897220611572 0.3069603443145752 -0.3687506318092346 0.024008160457015038 0.22252894937992096 0.20904013514518738 0.013327187858521938 -0.12005455791950226 0.5660151839256287 0.3165235221385956 0.18632052838802338 0.15040573477745056 0.05134643241763115 0.060737837105989456 0.6248151063919067 -0.04562525078654289 0.18484845757484436 -0.43294766545295715 -0.2221713662147522 -0.14515158534049988 0.13452139496803284 0.03273262083530426 -0.26028546690940857 0.1824178546667099 -0.07662118971347809 0.5122129917144775 0.3885958790779114 -0.12067165225744247 0.2574824094772339 0.20815269649028778 0.1525735706090927 0.06521832197904587
32 -0.0033881282433867455 0.3226572573184967 -0.5540232062339783 0.011557410471141338 0.19813784956932068 0.007062143180519342 -0.24719274044036865 0.03867185488343239 0.34699195623397827 0.452900230884552 0.11960949748754501 0.18944676220417023 -0.0988505408167839 -0.2759004235267639 0.6106674671173096 -0.24050454795360565 0.20012423396110535 -0.6131981611251831 -0.0776544138789177 0.08864883333444595 0.2543359696865082 0.083700031042099 -0.21341735124588013 0.13657338917255402 0.003002676647156477 0.3725475072860718 0.4291079044342041 -0.165010467171669 0.2571297287940979 0.0747690424323082 -0.005269540008157492 0.20117972791194916
32 -0.07962152361869812 0.2354130744934082 -0.34465885162353516 0.06084137409925461 0.09451020509004593 0.00677519990131259 -0.13920682668685913 0.22102589905261993 0.014304384589195251 0.4530996084213257 0.1805272251367569 0.22463835775852203 -0.2783038020133972 0.012467645108699799 0.46716856956481934 -0.09362741559743881 0.43396979570388794 -0.21909040212631226 0.05969793722033501 0.04769333824515343 0.3110402524471283 0.05649855360388756 0.052944011986255646 -0.005709426011890173 0.16484865546226501 0.3504503667354584 0.26913267374038696 -0.0396333746612072 0.28287017345428467 0.527753472328186 0.1260061264038086 0.19225981831550598
32 0.019112015143036842 0.3081495463848114 -0.3431638479232788 0.15192535519599915 0.02385302446782589 0.018901953473687172 0.0014759800396859646 0.23929646611213684 0.14148390293121338 0.2421695441007614 0.03810154274106026 0.36987125873565674 0.053512245416641235 0.09288731217384338 0.3765524923801422 -0.11586873233318329 0.6160158514976501 -0.05590508505702019 -0.08409725874662399 0.07983830571174622 0.22888071835041046 0.08122147619724274 -0.17587992548942566 0.25289493799209595 0.25755056738853455 0.4613330066204071 0.39231517910957336 0.01748947612941265 0.29444757103919983 0.4252508580684662 0.2749634087085724 0.3344598114490509
32 0.042011406272649765 0.2724667191505432 0.11180480569601059 0.12915870547294617 -0.27656036615371704 0.17664870619773865 -0.06313886493444443 0.29405906796455383 0.3328789174556732 0.2079293578863144 -0.11326149106025696 0.3801640272140503 0.3864494860172272 0.03512246534228325 0.33995068073272705 0.4189898371696472 0.701508641242981 0.2626526951789856 0.10886472463607788 0.23344413936138153 0.18330304324626923 -0.015143330208957195 -0.30023977160453796 0.24232137203216553 0.18939220905303955 0.32238081097602844 0.23394447565078735 0.03410812467336655 -0.11563947796821594 -0.06847080588340759 0.2041955292224884 0.33242854475975037
32 -0.08470090478658676 0.12546312808990479 -0.03225289657711983 0.18114317953586578 -0.28017938137054443 0.29752013087272644 -0.1219804435968399 0.20432953536510468 0.004759498406201601 0.22840209305286407 -0.4034164547920227 0.40741103887557983 0.43796810507774353 -0.024247361347079277 0.13056951761245728 0.3116227090358734 0.5686963796615601 0.25666046142578125 0.1484951674938202 0.31526005268096924 0.021442564204335213 0.1525290608406067 -0.35610413551330566 0.008797709830105305 0.22239501774311066 0.03673621267080307 0.03834168612957001 0.08571099489927292 -0.1379125714302063 -0.428302139043808 0.013413356617093086 0.15205030143260956
32 0.006601913366466761 0.052198778837919235 0.2686960697174072 0.040606457740068436 -0.4959336221218109 0.30258461833000183 -0.02336997725069523 0.10943915694952011 0.16261346638202667 -0.1127508208155632 -0.14148372411727905 0.12802369892597198 0.04516313970088959 -0.09375645220279694 -0.21109528839588165 0.31507110595703125 0.3033674955368042 0.08302996307611465 0.202804297208786 0.14166957139968872 -0.011951301246881485 -0.04689401388168335 -0.23870396614074707 -0.4669139087200165 0.08898928761482239 0.1776035726070404 0.041787054389715195 0.11322277784347534 0.0633452758193016 -0.37770166993141174 0.05422582849860191 0.1943085640668869
32 -0.018500424921512604 0.04062451049685478 0.11242738366127014 -0.03478562831878662 -0.37594395875930786 0.32497456669807434 -0.09102737158536911 0.16509929299354553 0.1398070901632309 0.06042883172631264 -0.1998262107372284 0.04780435189604759 -0.056191857904195786 0.0862092450261116 0.4772863984107971 0.07737293839454651 0.41425761580467224 0.10997459292411804 -0.003949929028749466 -0.057303398847579956 -0.10423871874809265 0.3212945759296417 -0.020484095439314842 -0.15380454063415527 0.07911498099565506 0.17486286163330078 0.16247312724590302 0.06033974885940552 0.058421917259693146 -0.31658416986465454 0.011395622044801712 0.1403815746307373
32 0.3215391933917999 0.31784334778785706 -0.22668525576591492 0.1870449036359787 -0.05648630112409592 0.14911702275276184 0.05533796176314354 -0.00751996785402298 0.6045851111412048 0.31670722365379333 0.19091154634952545 0.182760551571846 0.13976383209228516 0.16671451926231384 0.5751586556434631 0.12810948491096497 -0.0915742889046669 -0.12361964583396912 -0.1698591560125351 0.17372633516788483 -0.2813982367515564 0.23729492723941803 0.11478327214717865 0.1279935985803604 0.011621885001659393 0.5156887769699097 0.28325989842414856 -0.023684967309236526 0.26733359694480896 0.45094144344329834 -0.02517203986644745 0.1816762238740921
32 0.5056853294372559 0.37175628542900085 -0.33123135566711426 0.09756918251514435 0.2337091565132141 0.05359814316034317 -0.05032160133123398 0.17819766700267792 0.336190402507782 0.2325500249862671 0.14100854098796844 0.27150464057922363 -0.139468714594841 -0.015263115987181664 0.6363803744316101 0.013960563577711582 0.05823076516389847 -0.2794659733772278 -0.09507625550031662 0.16681821644306183 0.2824551463127136 0.42539316415786743 0.24050985276699066 -0.35129526257514954 0.14383402466773987 0.3991057574748993 0.3028015196323395 -0.3115403950214386 0.22196054458618164 0.3688492774963379 -0.13268348574638367 0.27445241808891296
32 0.22105635702610016 0.21154120564460754 -0.3879507780075073 0.08801799267530441 0.12298636883497238 0.1267622411251068 -0.06040574237704277 0.17858660221099854 0.21436163783073425 0.25535279512405396 0.2894211709499359 0.28855377435684204 -0.08184224367141724 0.06516563147306442 0.5708292722702026 -0.06300845742225647 0.2724202871322632 0.16191135346889496 0.06890919059515 0.1614854782819748 0.26505181193351746 0.2017672061920166 0.35021236538887024 0.03938215970993042 0.18968525528907776 0.4856018126010895 -0.026507196947932243 -0.2621573805809021 0.20190413296222687 0.5537739992141724 0.16326181590557098 0.44169893860816956
32 0.18716871738433838 0.23599375784397125 -0.16627201437950134 0.049478672444820404 -0.10276465117931366 0.0453651137650013 0.0009764581918716431 0.27720341086387634 0.18272607028484344 0.1052352711558342 0.07224968075752258 0.2944720983505249 -0.13306859135627747 0.005715338047593832 0.4580490291118622 -0.0642721876502037 0.18038339912891388 0.07950634509325027 0.09190182387828827 0.2834295630455017 0.1486915946006775 0.09481699019670486 -0.1921260505914688 -0.016098886728286743 0.26585328578948975 0.44839683175086975 0.47583985328674316 -0.14509019255638123 0.26356828212738037 0.5188291668891907 0.2232443392276764 0.3357936441898346
32 0.13675864040851593 0.129403755068779 -0.07196011394262314 0.008997630327939987 -0.350820392370224 -0.018781879916787148 -0.16872435808181763 0.2655009627342224 0.1992163211107254 0.05077021196484566 0.011778921820223331 0.49272289872169495 0.2982107400894165 0.008363925851881504 0.4024598002433777 0.1825612336397171 0.11526111513376236 0.3119471073150635 0.20974630117416382 0.23642483353614807 -0.04193563386797905 -0.010860178619623184 0.02137187123298645 0.28643277287483215 0.2538245916366577 0.4490273594856262 0.31922441720962524 0.12806320190429688 0.17995217442512512 0.11767802387475967 0.12036657333374023 0.33901673555374146
32 0.05893920734524727 0.13380061089992523 0.3133508563041687 0.2682478129863739 -0.610691487789154 -0.10199345648288727 0.0399283766746521 0.1885741502046585 0.3331449329853058 0.2678464949131012 -0.07676038146018982 0.50750732421875 0.5203210115432739 -0.018074218183755875 0.43496474623680115 0.19822221994400024 0.2254110425710678 0.16300924122333527 0.19659562408924103 0.14006738364696503 -0.047548551112413406 -0.01589089445769787 0.08765172213315964 -0.05108635127544403 0.21638613939285278 0.11715962737798691 0.33709225058555603 0.2877013087272644 0.008703891187906265 -0.0787445455789566 0.11061138659715652 0.24193882942199707
32 0.3342690169811249 -0.063974529504776 0.06448272615671158 0.18551558256149292 -0.4361463487148285 -0.08954828232526779 0.14919163286685944 0.04467061534523964 0.5734065771102905 0.20452554523944855 -0.10365276783704758 0.5335171222686768 0.44357815384864807 0.07366281002759933 0.28465503454208374 0.06513617187738419 0.12734636664390564 0.20230108499526978 0.18803799152374268 0.1492559313774109 -0.02912111021578312 -0.12407442927360535 0.2075023204088211 -0.2024914175271988 0.16075535118579865 0.21522171795368195 0.293477863073349 0.20890110731124878 -0.0339181162416935 -0.08215829730033875 -0.04107068479061127 0.3301575183868408
32 0.33200517296791077 0.10905309021472931 0.06689338386058807 0.1069478690624237 -0.14988794922828674 0.08081132173538208 0.026822254061698914 0.06373598426580429 0.12450363487005234 0.30411991477012634 -0.12991376221179962 0.29498350620269775 0.35552605986595154 -0.03188799321651459 0.5009459257125854 0.07602090388536453 0.2683992087841034 0.1823689341545105 0.07903114706277847 0.04407452046871185 0.024049440398812294 0.11592628061771393 0.16527773439884186 -0.4850519597530365 0.06434671580791473 0.12603402137756348 0.40291306376457214 0.15258406102657318 -0.05052867531776428 -0.07067935913801193 -0.0922015905380249 0.09243923425674438
32 0.8437596559524536 0.27041175961494446 -0.35577747225761414 -0.08039400726556778 -0.047103382647037506 0.030526230111718178 0.053802020847797394 -0.008359797298908234 0.6443681120872498 0.2384296953678131 -0.17239873111248016 0.26848897337913513 0.16935767233371735 0.1964491903781891 0.7742016315460205 0.11880578845739365 0.011044271290302277 0.008186696097254753 0.05232932046055794 -0.05315622687339783 0.12125233560800552 0.32868584990501404 0.07508788257837296 -0.031162241473793983 0.13070303201675415 0.5714312195777893 0.59938645362854 -0.17377382516860962 0.12139081209897995 0.10685243457555771 0.022512948140501976 0.123264379799366
32 0.4513258934020996 0.17448893189430237 -0.29471638798713684 0.23953549563884735 -0.026591310277581215 0.006155253853648901 -0.07960647344589233 0.16300269961357117 0.5156699419021606 0.1543632596731186 -0.00865873135626316 0.08947139233350754 -0.05664146691560745 0.1789562851190567 0.6156609654426575 -0.02051258459687233 0.004584697540849447 -0.05220932886004448 0.0544607974588871 0.3535519540309906 -0.0777328684926033 0.43943512439727783 0.1848885416984558 -0.29719915986061096 0.1286243051290512 0.5202986001968384 0.11438609659671783 -0.2686983346939087 -0.03986585885286331 0.33997204899787903 -0.17208130657672882 0.38343554735183716
32 0.29915502667427063 0.23842868208885193 -0.16927435994148254 -0.03521443158388138 0.10156363248825073 0.1407684087753296 -0.12850838899612427 0.30186259746551514 0.3148001730442047 0.06296063214540482 0.06543353199958801 0.31729328632354736 0.006017506122589111 0.17328296601772308 0.5941513180732727 -0.12752662599086761 -0.11572092771530151 0.07241121679544449 0.06962761282920837 -0.09436318278312683 0.011606008745729923 0.41749462485313416 -0.19524428248405457 -0.34857866168022156 0.22049443423748016 0.31735968589782715 0.15779857337474823 -0.17962948977947235 0.05380324646830559 0.4170857071876526 -0.16342733800411224 0.44354116916656494
32 0.1540829986333847 0.31153568625450134 -0.11349905282258987 0.05093821510672569 -0.12000541388988495 0.19108907878398895 -0.1352275311946869 0.28045782446861267 0.11212646961212158 0.03361400216817856 0.17863351106643677 0.3525814116001129 -0.0008526539313606918 0.16330645978450775 0.5415453314781189 -0.23861904442310333 -0.055666737258434296 0.2914910316467285 0.1345161497592926 0.021124444901943207 -0.19328093528747559 0.15400663018226624 0.004254141356796026 0.05234731361269951 0.22871725261211395 0.334844172000885 0.01559001486748457 -0.002287838142365217 0.21258993446826935 0.13023069500923157 0.0030307748820632696 0.3910803496837616
32 0.08115019649267197 0.32285237312316895 0.01414549257606268 -0.13325299322605133 0.0013181804679334164 -0.02635227143764496 -0.1899273842573166 0.19269929826259613 -0.0029034169856458902 0.07952343672513962 -0.006538377143442631 0.4060814678668976 0.06858084350824356 0.3045863211154938 0.4758264422416687 -0.09372758865356445 -0.058421406894922256 -0.1392354667186737 0.22522197663784027 0.3511447608470917 -0.10498680174350739 0.12097182124853134 0.10149139165878296 0.10155891627073288 0.1311856359243393 0.22579045593738556 0.3406256437301636 0.06149304658174515 0.19961416721343994 0.15101264417171478 0.14066286385059357 0.13083955645561218
32 0.2335982471704483 0.00488290935754776 0.18538779020309448 0.10093887895345688 -0.34716707468032837 -0.1245678961277008 -0.08440620452165604 0.1606132686138153 0.044210631400346756 0.17276519536972046 -0.03112902119755745 0.5397035479545593 0.33379194140434265 0.0365632064640522 0.31053629517555237 0.03304101154208183 -0.03458906337618828 0.0649326890707016 0.25674349069595337 0.17580094933509827 -0.05660207197070122 -0.16665875911712646 0.444996178150177 -0.0136502580717206 -0.12899042665958405 0.2554354667663574 0.2547663152217865 0.3440626859664917 0.0024065847974270582 -0.017290303483605385 -0.011900469660758972 0.38321128487586975
32 0.3135099411010742 -0.3479349613189697 0.030709700658917427 0.06723158806562424 -0.31114110350608826 -0.2484024316072464 -0.07088733464479446 -0.07612548023462296 0.011605625040829182 0.2669825851917267 -0.26959431171417236 0.41376566886901855 0.08213420957326889 0.0886973962187767 0.40270179510116577 -0.03796021640300751 0.10220320522785187 0.14609025418758392 0.36068177223205566 0.2734605073928833 -0.027554692700505257 -0.041727274656295776 0.291317343711853 -0.7167322039604187 0.130528524518013 -0.04453709349036217 0.4634688198566437 0.2974850535392761 0.3261176347732544 0.11941361427307129 0.04030296579003334 0.053002070635557175
32 0.3720121681690216 -0.5401757955551147 0.085958331823349 0.08697115629911423 -0.3456745147705078 -0.22370897233486176 -0.029994215816259384 -0.0639030784368515 0.3604830801486969 0.1307152509689331 -0.09156494587659836 0.4540320634841919 0.17231859266757965 0.019494693726301193 0.4636584222316742 -0.11058513820171356 0.011880924925208092 0.3585452139377594 0.24589934945106506 0.16968084871768951 0.21997657418251038 -0.15555916726589203 0.21598659455776215 -0.6308985948562622 -0.14312298595905304 0.49885234236717224 0.2947770655155182 0.27611052989959717 -0.17897748947143555 0.2290765345096588 -0.033311598002910614 0.2028760462999344
32 0.8405578136444092 0.2004324346780777 -0.37408018112182617 0.054738372564315796 0.0053922696970403194 0.16298148036003113 0.010485419072210789 -0.07520776987075806 0.5006093382835388 0.09099426120519638 -0.41520223021507263 0.007255846634507179 0.24607980251312256 0.07404621690511703 0.4035269320011139 0.19518770277500153 0.10011963546276093 0.20091134309768677 -0.2298276126384735 0.17988468706607819 0.002212934661656618 0.3371122181415558 0.30633360147476196 -0.17678843438625336 -0.15101258456707 0.27728432416915894 0.18657977879047394 -0.1936640441417694 -0.15626388788223267 0.03491245210170746 0.03163982927799225 0.25163114070892334
32 0.5232313871383667 -0.03975026309490204 -0.31746405363082886 -0.31301432847976685 0.08259563893079758 0.23375698924064636 0.02141505852341652 -0.04087987169623375 0.00434923218563199 -0.10572872310876846 -0.06343348324298859 0.2818756699562073 0.1984112709760666 0.23077844083309174 0.21387162804603577 0.03829106315970421 -0.08775784820318222 -0.13436098396778107 -0.2770887315273285 0.026649000123143196 0.16254878044128418 0.3514406979084015 0.20312431454658508 -0.2773608863353729 0.16130602359771729 0.06982850283384323 0.2041613608598709 -0.19821324944496155 -0.5042335987091064 0.029548104852437973 -0.12430676817893982 0.36285412311553955
32 0.2606317102909088 0.0911177396774292 -0.03881321847438812 0.05290002003312111 -0.09130717068910599 0.22404280304908752 -0.3655249774456024 0.10386141389608383 0.16579699516296387 -0.08573752641677856 -0.07155231386423111 0.1480642855167389 0.19048452377319336 0.15056172013282776 0.27685242891311646 -0.07030605524778366 -0.19290292263031006 -0.18163007497787476 0.13636985421180725 -0.3096591532230377 -0.06534062325954437 0.32123032212257385 0.045409247279167175 -0.2856043875217438 0.12976813316345215 0.33749040961265564 -0.2753213047981262 -0.18412360548973083 -0.17352721095085144 0.0950058177113533 -0.006966263055801392 0.4611537754535675
32 0.1387069821357727 0.11746202409267426 -0.09892639517784119 -0.022144541144371033 0.011032532900571823 0.15467804670333862 -0.12886568903923035 0.08689640462398529 0.1007341742515564 -0.1344672590494156 0.13683806359767914 0.08432791382074356 0.22425693273544312 0.5836685299873352 0.19404324889183044 0.09534381330013275 -0.09277547150850296 -0.3132840394973755 0.22215262055397034 0.10788198560476303 0.15046027302742004 0.13314756751060486 -0.0979829728603363 -0.4675585925579071 0.15564537048339844 0.05189436301589012 -0.08854564279317856 -0.04467611759901047 -0.0739772841334343 0.05483542010188103 0.11242569237947464 0.19106195867061615
32 -0.022318970412015915 0.14653223752975464 -0.23588083684444427 -0.13178017735481262 -0.08686401695013046 0.05760439112782478 -0.1869363635778427 -0.05936793237924576 -0.012318164110183716 -0.11992956697940826 0.13763964176177979 0.1345827579498291 0.19890794157981873 0.1294717937707901 0.13543333113193512 -0.0006688397261314094 -0.2425202876329422 -0.21154098212718964 0.3563036024570465 0.1603410691022873 0.11294614523649216 0.1860717386007309 0.11061426997184753 -0.07671342045068741 -0.08541292697191238 0.17173340916633606 -0.3880385160446167 0.05434871464967728 0.01160251721739769 -0.07398279011249542 0.1893867403268814 0.5344104766845703
32 -0.08467757701873779 -0.09847500175237656 0.019585859030485153 -0.31114462018013 0.09546993672847748 -0.008738581091165543 -0.3650052547454834 0.14559321105480194 -0.05614408850669861 0.18396225571632385 -0.03496282547712326 0.2743239402770996 0.15585209429264069 0.07817033678293228 -0.050351474434137344 0.012808946892619133 -0.24971215426921844 -0.18045900762081146 0.09119102358818054 0.32616332173347473 0.0019375889096409082 0.02514525130391121 0.227809876203537 -0.28961583971977234 0.09427018463611603 0.28287532925605774 -0.042895153164863586 0.15368163585662842 -0.22981393337249756 -0.254239022731781 0.02852616459131241 -0.22129063308238983
32 0.08195215463638306 -0.4272141754627228 -0.1060749888420105 0.05865154042840004 -0.39786389470100403 -0.16216066479682922 -0.43017446994781494 -0.12243074923753738 -0.21993470191955566 -0.08482823520898819 0.08446201682090759 0.2822665274143219 -0.07443485409021378 -0.19643442332744598 -0.03796892985701561 -0.11055915057659149 0.021282225847244263 0.22748078405857086 0.13794593513011932 0.10579537600278854 0.09665656089782715 0.0456838384270668 0.19698095321655273 -0.020592492073774338 0.13606981933116913 -0.1674618124961853 -0.03584001958370209 0.3176047205924988 -0.19904161989688873 -0.15511466562747955 -0.040909893810749054 -0.028688330203294754
32 0.3025076389312744 -0.5050824284553528 0.07888393849134445 0.14790989458560944 0.019782476127147675 -0.16427256166934967 -0.06679152697324753 -0.3674941658973694 0.1076183095574379 0.0706624835729599 -0.0975656509399414 0.2808578312397003 -0.18648280203342438 0.04536942392587662 -0.17998604476451874 -0.11360622942447662 -0.04774772375822067 0.17961332201957703 0.0911015048623085 0.055589426308870316 0.2571455240249634 -0.06640656292438507 0.152170330286026 -0.5507385730743408 -0.09029170870780945 -0.48963314294815063 0.05637152120471001 0.3384699821472168 -0.12300879508256912 0.05448571965098381 -0.12268707156181335 -0.539644181728363
32 0.21639569103717804 -0.08084029704332352 0.22455079853534698 -0.13396477699279785 0.20351198315620422 0.22528240084648132 -0.0072121163830161095 -0.3615412712097168 0.055194590240716934 0.1116563156247139 -0.24210837483406067 -0.08572109043598175 -0.01936943084001541 0.11632716655731201 0.20857758820056915 0.2685892879962921 0.355730801820755 -0.05912817269563675 -0.2715466618537903 0.04593802988529205 0.018590275198221207 0.16986729204654694 0.24825693666934967 -0.1373666524887085 -0.10188648104667664 0.13960158824920654 0.19214195013046265 0.06871069967746735 -0.06314247101545334 -0.1723041534423828 -0.08434261381626129 0.24037668108940125
32 0.08173452317714691 -0.16634009778499603 0.3205941319465637 -0.19688449800014496 -0.2755577266216278 0.2562766969203949 0.0652041807770729 0.17246581614017487 0.06348827481269836 0.10429594665765762 -0.2602634131908417 -0.16690334677696228 0.015151150524616241 -0.028383731842041016 -0.006980685982853174 0.22915929555892944 -0.002318661892786622 -0.09211354702711105 -0.2250610589981079 -0.3026576638221741 0.018240660429000854 -0.006252707913517952 -0.02758922055363655 -0.2100086659193039 0.11965394020080566 0.1820739060640335 0.13215675950050354 0.05307203158736229 -0.2579894959926605 -0.019297927618026733 0.045842815190553665 0.3493000268936157
32 -0.11389639228582382 -0.004856298211961985 0.09670636802911758 -0.30959704518318176 0.23685675859451294 0.2296997457742691 -0.0711016058921814 0.025029322132468224 -0.05349043011665344 0.06186005845665932 -0.011202597059309483 -0.013670098967850208 0.21993140876293182 -0.0791664868593216 -0.26679348945617676 0.06609661877155304 -0.10953265428543091 -0.39180615544319153 -0.04340139403939247 -0.3729485869407654 -0.18730151653289795 0.03712043911218643 0.13434630632400513 -0.3809787631034851 0.24736277759075165 0.16075636446475983 0.1370721459388733 0.10243399441242218 -0.20538075268268585 0.36329159140586853 0.05393565446138382 0.09364158660173416
32 -0.14250408113002777 -0.015856286510825157 -0.013182737864553928 -0.03618323430418968 -0.30154410004615784 0.1859445422887802 -0.3253133296966553 0.11906317621469498 -0.0021423620637506247 -0.15303297340869904 0.13384659588336945 -0.1393396258354187 0.12226688116788864 -0.03554331511259079 0.09344564378261566 -0.07028297334909439 -0.16711673140525818 0.12700766324996948 0.023034030571579933 -0.045392896980047226 0.011896401643753052 -0.036892119795084 0.22192847728729248 -0.6017568707466125 -0.013751056045293808 0.15373896062374115 -0.15559732913970947 -0.011272771283984184 -0.026982389390468597 0.015894750133156776 -0.03255234286189079 0.32474127411842346
32 -0.02217174507677555 -0.27231958508491516 -0.35405510663986206 -0.15363101661205292 0.2516932189464569 0.23442116379737854 -0.41304606199264526 -0.10309287905693054 -0.08062583208084106 0.033730246126651764 0.06608327478170395 0.02071457915008068 0.12102407962083817 -0.0672764852643013 0.014159814454615116 0.39592117071151733 -0.14841145277023315 -0.3175663948059082 0.13790342211723328 0.1362164318561554 -0.025486338883638382 0.03491714596748352 0.14513854682445526 -0.7798530459403992 0.21391242742538452 0.12165354192256927 -0.13528670370578766 0.12808170914649963 -0.09110745787620544 0.12768259644508362 0.0052487519569695 -0.21147401630878448
32 -0.26665326952934265 -0.3718815743923187 -0.15977105498313904 0.2055867314338684 -0.032988689839839935 0.07765023410320282 -0.09623970091342926 0.05894729122519493 -0.21310746669769287 -0.05757451802492142 -0.0007396655855700374 -0.10731757432222366 -0.13477666676044464 -0.024221302941441536 -0.2529309093952179 -0.11277108639478683 -0.2560921311378479 -0.00664690975099802 -0.07780604064464569 -0.14212946593761444 -0.1147514283657074 -0.038341667503118515 0.036668114364147186 -0.02515418827533722 -0.09019797295331955 -1.0077444314956665 -0.4210304319858551 0.011145731434226036 -0.11064768582582474 0.04437469691038132 0.03771128132939339 0.20474298298358917
32 -0.14540311694145203 -0.13007952272891998 0.0594070702791214 0.03307754546403885 0.14741277694702148 0.012264066375792027 -0.2584124505519867 0.09760021418333054 -0.21904098987579346 0.11693043261766434 0.1450062245130539 -0.052122097462415695 -0.0011538147227838635 0.003160394262522459 -0.10652441531419754 0.04975905641913414 -0.14704014360904694 0.061902038753032684 0.034466300159692764 0.07657302170991898 -0.01597207598388195 -0.014709528535604477 -0.1999989151954651 -0.06090322509407997 0.06404555588960648 -0.7438762784004211 -0.19403505325317383 0.05259762704372406 -0.12772302329540253 -0.14019152522087097 0.02251456119120121 -0.4642516076564789
32 0.07565471529960632 -0.014665000140666962 0.13325944542884827 -0.10684199631214142 0.3376608192920685 -0.05166466534137726 -0.3221811354160309 0.09580341726541519 -0.23035641014575958 -0.15214833617210388 -0.0038990455213934183 -0.38727521896362305 -0.3077302575111389 0.024562181904911995 -0.2512434124946594 -0.3769760727882385 -0.15934927761554718 0.3604040741920471 0.17277714610099792 0.09776993095874786 -0.029912155121564865 -0.07419999688863754 -0.25372079014778137 0.1656896024942398 -0.18563173711299896 -0.4184671938419342 -0.2767104506492615 0.05005929246544838 -0.17404504120349884 -0.1275925636291504 0.053073685616254807 -0.2899496555328369
32 0.14887064695358276 -0.24142374098300934 0.02661636658012867 0.17492085695266724 -0.02848914824426174 0.12661798298358917 -0.2932896614074707 -0.23257364332675934 -0.03853938356041908 -0.09511372447013855 -0.38433149456977844 -0.4164625108242035 -0.34607070684432983 -0.35573723912239075 0.002954203635454178 -0.11855478584766388 -0.05570436269044876 -0.05342766270041466 -0.8183233141899109 -0.29468974471092224 -0.1215754970908165 -0.022050239145755768 0.3486715257167816 -0.007750210352241993 -0.031239349395036697 0.09498082846403122 -0.10191596299409866 0.055841512978076935 -0.018237801268696785 -0.2022324502468109 0.2233811318874359 0.17132535576820374
32 -0.3174709975719452 -0.7713291049003601 0.2824994921684265 -0.584591805934906 0.0006812983774580061 0.2984197735786438 -0.05386269465088844 0.08247317373752594 -0.07182460278272629 0.07062783092260361 0.023197079077363014 -0.4405795931816101 -0.11412008106708527 0.012473827227950096 -0.18357059359550476 0.08890584111213684 0.14876048266887665 -0.06369432061910629 -0.14665953814983368 0.017099708318710327 -0.04695715010166168 -0.25463953614234924 0.06358527392148972 0.008742368780076504 0.18100082874298096 0.14258842170238495 -0.2298133224248886 0.34744587540626526 0.12928497791290283 -0.08883741497993469 0.024047454819083214 0.009978663176298141
32 -0.24724642932415009 -0.8605130910873413 0.5003695487976074 -0.6651715040206909 -0.038729626685380936 0.2677205801010132 0.050839003175497055 0.10940775275230408 -0.16555611789226532 0.13965383172035217 -0.2141675055027008 -0.5796288847923279 -0.01213686540722847 -0.2231750786304474 -0.37497320771217346 0.2502351403236389 -0.0048145391047000885 -0.19121648371219635 -0.1624530851840973 -0.5745792984962463 -0.15837472677230835 -0.2811952829360962 0.14120562374591827 0.10400136560201645 0.11653894186019897 0.095343679189682 -0.26724714040756226 0.3620668947696686 0.26571348309516907 0.013515425845980644 0.44207677245140076 0.18178662657737732
32 0.043400757014751434 -0.5298435688018799 -0.29631903767585754 -0.3313979506492615 0.08551044017076492 0.2992720901966095 -0.19637081027030945 -0.04616827145218849 -0.21875162422657013 -0.05985090509057045 -0.09734030812978745 -0.29799526929855347 -0.03122112527489662 -0.35505762696266174 -0.30037790536880493 0.00896981731057167 -0.23509275913238525 -0.3252619802951813 0.08589357137680054 -0.5341476202011108 -0.21263045072555542 -0.0958639606833458 0.4093017876148224 -0.5612562894821167 0.13147835433483124 0.23075735569000244 0.23706156015396118 0.06614527851343155 -0.1647314727306366 0.45435449481010437 -0.08250384032726288 -0.180585578083992
32 -0.23564045131206512 -0.34115782380104065 0.02018284797668457 0.22253680229187012 0.06648364663124084 0.32251793146133423 0.22184136509895325 -0.3187791705131531 0.004603395238518715 0.09239112585783005 0.15955670177936554 -0.4532913863658905 -0.27964726090431213 -0.13276560604572296 -0.19902880489826202 0.10529830306768417 -0.058657206594944 0.1242007464170456 0.014324309304356575 -0.3651261031627655 -0.0006508923834189773 0.06771834194660187 -0.33880865573883057 0.0998283103108406 -0.4227488338947296 -0.22044265270233154 -0.01625843159854412 0.11139143258333206 0.46596238017082214 0.05232160538434982 -0.020472079515457153 -0.33878493309020996
32 -0.0917196050286293 -0.2737742066383362 -0.0340031273663044 0.37235522270202637 0.10810189694166183 0.11940006911754608 -0.306559294462204 0.006152771878987551 -0.36424097418785095 0.014262362383306026 0.056883275508880615 -0.5051714777946472 0.04190453886985779 0.13575860857963562 -0.17119038105010986 -0.2486725151538849 -0.2693850100040436 0.07502000778913498 0.1628797948360443 -0.33026063442230225 0.1289318948984146 0.0025350472424179316 0.010922780260443687 -0.46687760949134827 -0.10926738381385803 -0.35190603137016296 0.1662491261959076 -0.14722560346126556 -0.1707560420036316 0.06835412979125977 -0.023660024628043175 -0.22549578547477722
32 -0.27261948585510254 0.05400601029396057 0.11101754754781723 0.16960544884204865 0.3103645145893097 -0.07169204950332642 0.1544681042432785 0.0673423558473587 -0.08546733856201172 -0.18994492292404175 0.09019388258457184 -0.5429463386535645 -0.1159680187702179 0.029684225097298622 -0.3168412148952484 -0.3025974929332733 -0.16985686123371124 0.10822474211454391 0.10377035290002823 0.09101779013872147 0.050863996148109436 -0.015422958880662918 -0.3386758267879486 0.3173004686832428 -0.08818861842155457 -0.417911171913147 -0.14107856154441833 -0.03713851794600487 -0.18966519832611084 -0.08084538578987122 0.0996977835893631 -0.3243281841278076
32 0.01512555405497551 -0.027346311137080193 0.2669612765312195 -0.1733144223690033 0.20906120538711548 -0.2464875727891922 0.1493157595396042 0.00658992026001215 0.21705882251262665 -0.3112408518791199 0.02734214812517166 -0.603178858757019 -0.3269430100917816 0.021409418433904648 -0.5546996593475342 -0.5524277687072754 -0.2914966344833374 0.11941038072109222 0.19451144337654114 0.13597169518470764 0.09177855402231216 -0.06587379425764084 -0.27760934829711914 -0.10693295300006866 -0.14039207994937897 -0.17230252921581268 -0.10007019340991974 0.0205958504229784 -0.026233751326799393 -0.08062008768320084 -0.030954526737332344 -0.47976261377334595
32 0.12883028388023376 -0.15507453680038452 0.29189732670783997 -0.2524316608905792 0.02220032922923565 0.08221495151519775 0.1382230669260025 -0.39597979187965393 0.13107211887836456 -0.03297513723373413 -0.04330836236476898 -0.3630414605140686 0.03553929179906845 0.055495735257864 0.13058336079120636 -0.10246028006076813 -0.0198595579713583 0.05637425184249878 -0.11460277438163757 -0.1787610799074173 0.08542753010988235 0.294554740190506 0.20267166197299957 0.23725271224975586 -0.3221825659275055 0.1392589956521988 0.08488202840089798 -0.018279680982232094 -0.030877919867634773 -0.41578570008277893 0.15057052671909332 -0.3678891658782959
32 0.05614835023880005 -0.2709138095378876 0.11093828827142715 -0.3385823667049408 -0.24060148000717163 0.05331189185380936 0.20550256967544556 -0.08312855660915375 0.10940072685480118 -0.048824574798345566 -0.080604687333107 -0.24202382564544678 0.3627665638923645 0.03385843336582184 0.07495871186256409 -0.1695781946182251 0.008335850201547146 0.19549012184143066 -0.21947096288204193 -0.20736479759216309 -0.1266084611415863 0.29521167278289795 -0.17266212403774261 0.09331917762756348 -0.14619295299053192 0.19905655086040497 -0.046019528061151505 0.08455578982830048 -0.051407646387815475 0.04184751585125923 0.0512220561504364 -0.37780770659446716
32 -0.11006021499633789 0.0816812813282013 0.1891925036907196 -0.3701865077018738 0.011658010073006153 0.015711041167378426 0.016912715509533882 -0.5851261615753174 0.23257634043693542 -0.02911074459552765 -0.01661543920636177 -0.2754081189632416 0.24974697828292847 0.2525719106197357 0.2240365445613861 -0.007920121774077415 -0.01811661198735237 0.07422520965337753 -0.24429303407669067 -0.3587971031665802 0.05536934733390808 0.2883252501487732 -0.2149997502565384 0.057573866099119186 -0.2997923493385315 0.12782998383045197 -0.08089156448841095 0.0027683067601174116 -0.25310561060905457 -0.036854274570941925 -0.2143465131521225 -0.16920384764671326
32 -0.06826712191104889 -0.16232776641845703 -0.020814284682273865 -0.17922726273536682 -0.3491895794868469 0.20949667692184448 0.3219200670719147 0.21817083656787872 0.31137770414352417 -0.14674612879753113 0.04116467013955116 -0.6509326696395874 0.33795166015625 -0.033300019800662994 0.6028984189033508 -0.5621886253356934 0.28941354155540466 -0.8761812448501587 -0.1657208353281021 0.012625589035451412 0.25588810443878174 0.06361750513315201 0.07534536719322205 0.3797110617160797 -0.5112084746360779 0.2634471356868744 0.14930251240730286 -0.08895760774612427 -0.06562754511833191 -0.5454862117767334 0.14366793632507324 -0.298476904630661
32 0.04011911526322365 0.07977300137281418 -0.22445249557495117 -0.1806688904762268 0.18258357048034668 0.24800457060337067 0.11745079606771469 -0.4010249674320221 -0.4475752115249634 -0.155594602227211 -0.036719705909490585 -0.3718651235103607 -0.8648360371589661 0.2987058162689209 0.24383525550365448 -0.0659978911280632 -0.04975876212120056 0.15915849804878235 -0.13413891196250916 -0.11559852212667465 0.2956744134426117 -0.1177637130022049 0.40261340141296387 0.0339420810341835 -0.08987848460674286 0.2912505269050598 -0.03502275049686432 0.23133301734924316 -0.010966564528644085 -0.28260737657546997 0.2080576866865158 -0.34189677238464355
32 -0.02877795137465 -0.07646176218986511 0.002466114703565836 -0.04551386833190918 -0.3379989266395569 0.00984862819314003 -0.03527838736772537 0.1900985985994339 0.061234697699546814 -0.32632356882095337 -0.13518360257148743 -0.30696091055870056 0.01577022485435009 0.2694966793060303 0.19194923341274261 0.15341657400131226 0.07704184204339981 0.032381195574998856 -0.19982779026031494 -0.050422824919223785 -0.14258809387683868 -0.016655782237648964 0.35207831859588623 -0.044371530413627625 -0.4662185311317444 0.05087551847100258 0.4428015947341919 0.39480870962142944 -0.3686975836753845 0.08204314112663269 0.20423074066638947 -0.12590292096138
32 0.04236336052417755 -0.04979662597179413 -0.27938422560691833 0.004251137375831604 0.061208318918943405 -0.006067868787795305 0.09098862111568451 -0.21857622265815735 0.041086532175540924 0.29427626729011536 -0.08787164092063904 -0.5124193429946899 0.4730353057384491 0.1874517798423767 -0.0060522910207509995 -0.009763394482433796 0.04186475649476051 0.10452928394079208 -0.26925262808799744 -0.09921476989984512 0.10969387739896774 -0.36983999609947205 -0.008207535371184349 -0.003175819758325815 0.17724455893039703 0.212995246052742 0.2332189828157425 0.21380022168159485 -0.2514494061470032 -0.04371266067028046 0.18520775437355042 -0.3335365653038025
32 0.011192522011697292 0.12017792463302612 -0.16633042693138123 -0.13201795518398285 -0.08119019120931625 -0.1063113883137703 -0.012306243181228638 0.08180312067270279 -0.16931195557117462 0.4931468367576599 -0.07460969686508179 -0.5762920379638672 -0.22830350697040558 -0.014589677564799786 0.25023385882377625 -0.07612588256597519 -0.0043234871700406075 0.13761182129383087 -0.2579626441001892 -0.03186110407114029 0.3323603570461273 -0.27032291889190674 -0.17107780277729034 0.017553405836224556 -0.4092482030391693 0.15122608840465546 0.029983730986714363 0.13691148161888123 -0.18886907398700714 0.06922817975282669 0.18852801620960236 -0.1173587441444397
32 0.047333404421806335 -0.04422365128993988 0.27075132727622986 -0.26429516077041626 0.030493369325995445 0.09430709481239319 0.09018264710903168 -0.3805708885192871 0.2059192657470703 0.11482896655797958 -0.03957429900765419 -0.14786356687545776 0.09774144738912582 0.07769953459501266 -0.06198207661509514 -0.0335778146982193 0.061763230711221695 0.07411409169435501 -0.15899558365345 -0.08856707811355591 0.08446337282657623 0.28457096219062805 0.16445878148078918 0.25478285551071167 -0.24516770243644714 -0.1592159867286682 0.002691550413146615 0.05487843230366707 -0.009637599810957909 -0.37851735949516296 0.2146308720111847 -0.2536483705043793
32 -0.041936248540878296 -0.25369399785995483 0.012425484135746956 -0.3157833218574524 -0.3297445774078369 0.11512129753828049 0.19020937383174896 0.13938342034816742 0.2585970163345337 0.12258043140172958 0.0004357540456112474 -0.0915198028087616 0.15862128138542175 0.14094172418117523 0.11261534690856934 -0.22661960124969482 0.054361023008823395 0.23725636303424835 -0.3278307616710663 0.06700147688388824 0.03610285744071007 0.3259238600730896 0.032065197825431824 0.08156857639551163 -0.08254744112491608 -0.08812308311462402 -0.3556109368801117 0.15576136112213135 0.2465454488992691 -0.23434026539325714 0.18748115003108978 -0.3230884373188019
32 -0.16371583938598633 0.11791928112506866 0.28178027272224426 -0.3214830756187439 -0.0111433956772089 0.17308540642261505 -0.09325771778821945 -0.36834385991096497 -0.19824476540088654 0.11885198950767517 0.01269503589719534 -0.14155744016170502 0.2631303668022156 0.30651775002479553 -0.060851987451314926 -0.020234854891896248 -0.09027319401502609 -0.23852527141571045 -0.10260453820228577 -0.4777239263057709 0.12442993372678757 0.1834365725517273 -0.6612282991409302 0.02747189626097679 -0.14363820850849152 0.10300601273775101 -0.025788290426135063 0.1487835943698883 -0.05426861718297005 0.3204556703567505 -0.23911674320697784 -0.18271532654762268
32 -0.13245365023612976 -0.28713828325271606 -0.05388114973902702 0.09548890590667725 -0.26164236664772034 0.03852283954620361 0.00875371415168047 0.1911599189043045 0.35440340638160706 0.17174507677555084 -0.06457532197237015 -0.3023863732814789 -0.22005991637706757 0.3797457218170166 0.11338590830564499 -0.22675013542175293 -0.13446283340454102 -1.56556236743927 -0.21440817415714264 0.12856949865818024 0.3136424124240875 0.12272362411022186 0.1119256317615509 0.08369817584753036 -0.3513120114803314 0.15010304749011993 -0.621487021446228 0.09589298814535141 0.12182600051164627 0.28656089305877686 0.11958449333906174 -0.22349697351455688
32 0.03513370081782341 0.09765829890966415 -0.13054494559764862 -0.10052415728569031 0.1377628892660141 0.13939066231250763 -0.18527959287166595 -0.6513756513595581 0.5987573862075806 -0.08346728980541229 -0.04302407056093216 -0.1920422911643982 0.05191167816519737 0.3343043327331543 -0.028742972761392593 0.07187274843454361 -0.13278760015964508 -0.3009916841983795 -0.09205957502126694 -0.23259000480175018 0.12090703845024109 -0.16649219393730164 0.5490701198577881 0.03615960851311684 0.07172870635986328 -0.13496330380439758 0.033174946904182434 0.20660366117954254 -0.04670090973377228 -0.4735696315765381 0.3429436683654785 -0.17880478501319885
32 0.04838426411151886 -0.29792705178260803 0.17969684302806854 -0.06983901560306549 -0.10678975284099579 0.08526647835969925 0.03776807337999344 0.2936340570449829 -0.5579275488853455 0.20876535773277283 0.05484373867511749 -0.1674102246761322 0.3995741307735443 0.22242121398448944 -0.22590981423854828 0.16741670668125153 0.18182753026485443 0.2730481028556824 -0.41287824511528015 -0.0032083666883409023 -0.06962515413761139 0.015256280079483986 0.006066059693694115 0.011274851858615875 -0.480369508266449 0.04215749353170395 0.012756302952766418 0.3548184335231781 -0.2948616147041321 -0.8928390741348267 0.2892385423183441 -0.06337127834558487
32 -0.0018969972152262926 0.07890285551548004 -0.30812692642211914 0.10057102143764496 -0.0898594856262207 0.02349320985376835 -0.062051184475421906 -0.43512049317359924 -0.2940601706504822 0.06107133626937866 -0.0757468193769455 -0.31003880500793457 -0.13017162680625916 0.12285315245389938 0.15102873742580414 -0.003314749337732792 0.06883499026298523 0.07082711160182953 -0.2283160239458084 -0.08899267762899399 0.21977181732654572 0.3156946301460266 0.18646083772182465 0.12346521764993668 0.3007669448852539 0.03829561546444893 -0.1506813019514084 0.30028557777404785 -0.06383917480707169 0.09594255685806274 0.14297321438789368 -0.15203030407428741
32 -0.05649637430906296 0.09566114842891693 -0.13420087099075317 -0.13284963369369507 0.029095487669110298 -0.026904769241809845 0.2083410620689392 0.039631541818380356 0.3698559105396271 0.16283729672431946 -0.013204338029026985 -0.2727115750312805 -0.15513308346271515 0.011830057948827744 0.06778824329376221 0.03984583541750908 0.10284627974033356 0.12468916922807693 -0.24956345558166504 0.10440471768379211 0.37620508670806885 -0.08659584075212479 -0.12435373663902283 -0.10311306267976761 -0.3512052595615387 0.06773160398006439 -0.13095930218696594 0.26724427938461304 -0.38087189197540283 0.24303749203681946 0.21897149085998535 -0.0008704740321263671
32 -0.2973261773586273 -0.21597734093666077 0.3264153003692627 -0.1430128514766693 0.14832711219787598 0.09805750846862793 0.21083305776119232 -0.20828787982463837 0.10053704679012299 0.09255940467119217 -0.22592434287071228 -0.21481607854366302 0.2581574022769928 0.19017641246318817 -0.1072065681219101 -0.10793715715408325 0.012111195363104343 0.07299140840768814 -0.1533467322587967 -0.2769664525985718 0.04941222071647644 0.2655303180217743 -0.04232342913746834 0.23808731138706207 -0.2640829384326935 0.007661890238523483 -0.14927755296230316 0.15630391240119934 0.19070379436016083 -0.07029057294130325 0.23718787729740143 -0.19544555246829987
32 -0.08782220631837845 -0.29046306014060974 0.024705173447728157 -0.22551189363002777 -0.44812214374542236 0.12399375438690186 0.2304845005273819 -0.06963799893856049 -0.003788135014474392 0.15723590552806854 0.15431372821331024 -0.12041927874088287 0.279013454914093 0.06316863745450974 -0.15347272157669067 -0.37987184524536133 0.01615423522889614 0.16563886404037476 -0.18632511794567108 0.12706565856933594 0.22247526049613953 0.15689824521541595 0.1763203740119934 0.21479706466197968 -0.06753896921873093 -0.252802312374115 -0.2518850862979889 0.24153469502925873 0.03483887389302254 -0.07115355879068375 0.17388390004634857 -0.22687917947769165
32 0.04845728725194931 0.14053809642791748 0.0831560343503952 -0.26262933015823364 0.00574951758608222 0.11188949644565582 0.017092937603592873 -0.21522808074951172 0.09137161821126938 0.1108553558588028 -0.47676825523376465 -0.0459449365735054 0.09954331815242767 0.02344665303826332 -0.032174065709114075 -0.0533854216337204 -0.002454355824738741 -0.03759375587105751 -0.09579794108867645 -0.459028959274292 0.24786727130413055 0.188009575009346 0.30057135224342346 0.018333952873945236 -0.09544262290000916 0.01130562461912632 -0.1858561784029007 -0.05787777528166771 0.13914763927459717 0.06456500291824341 0.2465953826904297 -0.27707788348197937
32 0.0035390336997807026 -0.07491475343704224 -0.15580560266971588 -0.02063749171793461 -0.42052948474884033 0.06479008495807648 -0.04233311489224434 -0.10523508489131927 -0.035689614713191986 0.02429685741662979 0.1316610872745514 -0.15449684858322144 0.2752593755722046 0.30477815866470337 -0.18369579315185547 -0.6479083299636841 -0.006050535012036562 -0.6606840491294861 -0.20317751169204712 0.04670936241745949 0.4797065556049347 0.12591110169887543 0.136508971452713 -0.08178167790174484 -0.32396847009658813 0.3479978144168854 0.09563318639993668 -0.05372334271669388 0.03985476493835449 0.0885077565908432 -0.023650668561458588 0.11574684083461761
32 0.12380173057317734 0.15140756964683533 -0.2755717933177948 -0.36993345618247986 -0.12952814996242523 0.029524581506848335 0.07601283490657806 -0.39058420062065125 -0.21970637142658234 -0.08036938309669495 -0.48669877648353577 -0.10393144190311432 0.44670864939689636 -0.026296330615878105 -0.10933912545442581 0.2031560242176056 -0.029499301686882973 0.003331006970256567 0.14447303116321564 -0.005547577049583197 0.251705139875412 0.0016941741341724992 -0.06900780647993088 -0.02672530896961689 -0.005978323984891176 0.19930598139762878 -0.021848488599061966 0.271274209022522 0.0802319347858429 0.016514919698238373 0.0724378153681755 -0.384358286857605
32 -0.01903023198246956 -0.18377192318439484 -0.05913184583187103 0.21687497198581696 -0.1674954742193222 0.10721123218536377 -0.2282046675682068 0.1982465386390686 0.15604855120182037 0.02053220011293888 0.08500459790229797 -0.1246730238199234 0.18996469676494598 0.18295146524906158 -0.04211430251598358 -0.2518594563007355 0.18659567832946777 0.18472956120967865 -0.5475640296936035 -0.33267250657081604 0.20284992456436157 0.10734613239765167 0.13567285239696503 0.03493545204401016 -0.4160959720611572 -0.16454574465751648 -0.17750272154808044 0.27899131178855896 -0.1409161537885666 -0.22995461523532867 0.1533438265323639 0.1864963173866272
32 -0.05045291408896446 0.1247556060552597 -0.3479749858379364 0.0186296533793211 -0.0882662981748581 0.15680094063282013 0.17241160571575165 -0.26465845108032227 0.04870802164077759 0.12058274447917938 -0.29445764422416687 -0.21982236206531525 0.2526291012763977 0.08620314300060272 -0.23939022421836853 -0.009012741968035698 0.01876906491816044 0.11420230567455292 -0.1603289097547531 0.0947614312171936 0.07934775948524475 0.29825571179389954 0.10053835809230804 0.09575114399194717 0.1321416199207306 -0.058921851217746735 -0.2622203528881073 0.20640933513641357 -0.26266980171203613 -0.06224019080400467 0.08580905944108963 -0.210740327835083
32 -0.12056108564138412 -0.031048204749822617 -0.1561879813671112 0.13433076441287994 0.17633849382400513 0.21403037011623383 0.17296196520328522 0.06383398920297623 -0.2659282386302948 0.36931219696998596 -0.06960558891296387 -0.13845255970954895 -0.059512946754693985 0.08877500146627426 -0.07874492555856705 -0.16197296977043152 0.01738574355840683 0.09638062119483948 -0.16078530251979828 -0.007519717328250408 0.13121983408927917 0.24310621619224548 -0.003587355138733983 0.1604355126619339 -0.30679112672805786 -0.05402357876300812 -0.17378520965576172 0.14058136940002441 -0.4801863729953766 -0.08456017076969147 0.18000248074531555 -0.039663560688495636
32 -0.3452565371990204 -0.12156666815280914 0.3638371527194977 -0.15062859654426575 0.14882856607437134 0.1197800561785698 0.019548308104276657 -0.25152385234832764 -0.0058833337388932705 0.23520995676517487 -0.368282288312912 -0.09676402062177658 0.33740928769111633 0.20431891083717346 -0.07060480862855911 -0.253604531288147 0.10848904401063919 0.16213355958461761 -0.09367776662111282 -0.15932825207710266 0.21026480197906494 0.3774258494377136 -0.004267456941306591 0.1842242330312729 -0.221981018781662 -0.037037212401628494 -0.1296636462211609 0.20420986413955688 0.21483217179775238 -0.08838756382465363 0.3222334086894989 -0.01237599365413189
